digraph Tree {
node [shape=box] ;
0 [label="X[51] <= 0.5\ngini = 0.462\nsamples = 7500\nvalue = [4778, 2722]"] ;
1 [label="X[38] <= 0.5\ngini = 0.496\nsamples = 5510\nvalue = [2994, 2516]"] ;
0 -> 1 [labeldistance=2.5, labelangle=45, headlabel="True"] ;
2 [label="X[143] <= 0.5\ngini = 0.497\nsamples = 4456\nvalue = [2045, 2411]"] ;
1 -> 2 ;
3 [label="X[133] <= 0.5\ngini = 0.476\nsamples = 3889\nvalue = [1516, 2373]"] ;
2 -> 3 ;
4 [label="X[142] <= 0.5\ngini = 0.445\nsamples = 3446\nvalue = [1149, 2297]"] ;
3 -> 4 ;
5 [label="X[85] <= 0.5\ngini = 0.402\nsamples = 3138\nvalue = [873, 2265]"] ;
4 -> 5 ;
6 [label="X[49] <= 0.5\ngini = 0.362\nsamples = 2969\nvalue = [704, 2265]"] ;
5 -> 6 ;
7 [label="X[127] <= 0.5\ngini = 0.3\nsamples = 2589\nvalue = [475, 2114]"] ;
6 -> 7 ;
8 [label="X[134] <= 0.5\ngini = 0.254\nsamples = 2420\nvalue = [362, 2058]"] ;
7 -> 8 ;
9 [label="X[147] <= 0.5\ngini = 0.222\nsamples = 2332\nvalue = [297, 2035]"] ;
8 -> 9 ;
10 [label="X[137] <= 0.5\ngini = 0.189\nsamples = 2227\nvalue = [235, 1992]"] ;
9 -> 10 ;
11 [label="X[135] <= 0.5\ngini = 0.156\nsamples = 2095\nvalue = [179, 1916]"] ;
10 -> 11 ;
12 [label="X[146] <= 0.5\ngini = 0.144\nsamples = 2070\nvalue = [162, 1908]"] ;
11 -> 12 ;
13 [label="X[129] <= 0.5\ngini = 0.125\nsamples = 2008\nvalue = [134, 1874]"] ;
12 -> 13 ;
14 [label="X[141] <= 0.5\ngini = 0.101\nsamples = 1929\nvalue = [103, 1826]"] ;
13 -> 14 ;
15 [label="X[139] <= 0.5\ngini = 0.089\nsamples = 1909\nvalue = [89, 1820]"] ;
14 -> 15 ;
16 [label="X[109] <= 0.5\ngini = 0.077\nsamples = 1890\nvalue = [76, 1814]"] ;
15 -> 16 ;
17 [label="X[136] <= 0.5\ngini = 0.07\nsamples = 1882\nvalue = [68, 1814]"] ;
16 -> 17 ;
18 [label="X[132] <= 0.5\ngini = 0.058\nsamples = 1858\nvalue = [56, 1802]"] ;
17 -> 18 ;
19 [label="X[124] <= 0.5\ngini = 0.049\nsamples = 1837\nvalue = [46, 1791]"] ;
18 -> 19 ;
20 [label="X[128] <= 0.5\ngini = 0.045\nsamples = 1833\nvalue = [42, 1791]"] ;
19 -> 20 ;
21 [label="X[131] <= 0.5\ngini = 0.007\nsamples = 1407\nvalue = [5, 1402]"] ;
20 -> 21 ;
22 [label="X[80] <= 0.5\ngini = 0.004\nsamples = 1405\nvalue = [3, 1402]"] ;
21 -> 22 ;
23 [label="X[103] <= 0.5\ngini = 0.003\nsamples = 1404\nvalue = [2, 1402]"] ;
22 -> 23 ;
24 [label="X[78] <= 0.5\ngini = 0.001\nsamples = 1403\nvalue = [1, 1402]"] ;
23 -> 24 ;
25 [label="gini = 0.0\nsamples = 1402\nvalue = [0, 1402]"] ;
24 -> 25 ;
26 [label="gini = 0.0\nsamples = 1\nvalue = [1, 0]"] ;
24 -> 26 ;
27 [label="gini = 0.0\nsamples = 1\nvalue = [1, 0]"] ;
23 -> 27 ;
28 [label="gini = 0.0\nsamples = 1\nvalue = [1, 0]"] ;
22 -> 28 ;
29 [label="gini = 0.0\nsamples = 2\nvalue = [2, 0]"] ;
21 -> 29 ;
30 [label="X[111] <= 0.5\ngini = 0.159\nsamples = 426\nvalue = [37, 389]"] ;
20 -> 30 ;
31 [label="X[90] <= 0.5\ngini = 0.148\nsamples = 422\nvalue = [34, 388]"] ;
30 -> 31 ;
32 [label="X[97] <= 0.5\ngini = 0.141\nsamples = 420\nvalue = [32, 388]"] ;
31 -> 32 ;
33 [label="X[58] <= 0.5\ngini = 0.133\nsamples = 418\nvalue = [30, 388]"] ;
32 -> 33 ;
34 [label="X[68] <= 0.5\ngini = 0.126\nsamples = 416\nvalue = [28, 388]"] ;
33 -> 34 ;
35 [label="X[4] <= 0.5\ngini = 0.118\nsamples = 414\nvalue = [26, 388]"] ;
34 -> 35 ;
36 [label="X[79] <= 0.5\ngini = 0.11\nsamples = 412\nvalue = [24, 388]"] ;
35 -> 36 ;
37 [label="X[30] <= 0.5\ngini = 0.102\nsamples = 409\nvalue = [22, 387]"] ;
36 -> 37 ;
38 [label="X[101] <= 0.5\ngini = 0.098\nsamples = 408\nvalue = [21, 387]"] ;
37 -> 38 ;
39 [label="X[110] <= 0.5\ngini = 0.093\nsamples = 407\nvalue = [20, 387]"] ;
38 -> 39 ;
40 [label="X[7] <= 0.5\ngini = 0.089\nsamples = 406\nvalue = [19, 387]"] ;
39 -> 40 ;
41 [label="X[103] <= 0.5\ngini = 0.085\nsamples = 405\nvalue = [18, 387]"] ;
40 -> 41 ;
42 [label="X[121] <= 0.5\ngini = 0.081\nsamples = 404\nvalue = [17, 387]"] ;
41 -> 42 ;
43 [label="X[36] <= 0.5\ngini = 0.076\nsamples = 403\nvalue = [16, 387]"] ;
42 -> 43 ;
44 [label="X[81] <= 0.5\ngini = 0.072\nsamples = 402\nvalue = [15, 387]"] ;
43 -> 44 ;
45 [label="X[122] <= 0.5\ngini = 0.067\nsamples = 401\nvalue = [14, 387]"] ;
44 -> 45 ;
46 [label="X[18] <= 0.5\ngini = 0.063\nsamples = 400\nvalue = [13, 387]"] ;
45 -> 46 ;
47 [label="X[96] <= 0.5\ngini = 0.058\nsamples = 399\nvalue = [12, 387]"] ;
46 -> 47 ;
48 [label="X[71] <= 0.5\ngini = 0.054\nsamples = 398\nvalue = [11, 387]"] ;
47 -> 48 ;
49 [label="X[39] <= 0.5\ngini = 0.049\nsamples = 397\nvalue = [10, 387]"] ;
48 -> 49 ;
50 [label="X[80] <= 0.5\ngini = 0.044\nsamples = 396\nvalue = [9, 387]"] ;
49 -> 50 ;
51 [label="X[2] <= 0.5\ngini = 0.04\nsamples = 394\nvalue = [8, 386]"] ;
50 -> 51 ;
52 [label="X[8] <= 0.5\ngini = 0.035\nsamples = 392\nvalue = [7, 385]"] ;
51 -> 52 ;
53 [label="X[72] <= 0.5\ngini = 0.03\nsamples = 390\nvalue = [6, 384]"] ;
52 -> 53 ;
54 [label="X[37] <= 0.5\ngini = 0.025\nsamples = 388\nvalue = [5, 383]"] ;
53 -> 54 ;
55 [label="X[57] <= 0.5\ngini = 0.016\nsamples = 377\nvalue = [3, 374]"] ;
54 -> 55 ;
56 [label="X[6] <= 0.5\ngini = 0.011\nsamples = 370\nvalue = [2, 368]"] ;
55 -> 56 ;
57 [label="X[46] <= 0.5\ngini = 0.005\nsamples = 363\nvalue = [1, 362]"] ;
56 -> 57 ;
58 [label="gini = 0.0\nsamples = 350\nvalue = [0, 350]"] ;
57 -> 58 ;
59 [label="X[0] <= 0.5\ngini = 0.142\nsamples = 13\nvalue = [1, 12]"] ;
57 -> 59 ;
60 [label="gini = 0.153\nsamples = 12\nvalue = [1, 11]"] ;
59 -> 60 ;
61 [label="gini = 0.0\nsamples = 1\nvalue = [0, 1]"] ;
59 -> 61 ;
62 [label="X[0] <= 0.5\ngini = 0.245\nsamples = 7\nvalue = [1, 6]"] ;
56 -> 62 ;
63 [label="gini = 0.278\nsamples = 6\nvalue = [1, 5]"] ;
62 -> 63 ;
64 [label="gini = 0.0\nsamples = 1\nvalue = [0, 1]"] ;
62 -> 64 ;
65 [label="X[0] <= 0.5\ngini = 0.245\nsamples = 7\nvalue = [1, 6]"] ;
55 -> 65 ;
66 [label="gini = 0.278\nsamples = 6\nvalue = [1, 5]"] ;
65 -> 66 ;
67 [label="gini = 0.0\nsamples = 1\nvalue = [0, 1]"] ;
65 -> 67 ;
68 [label="X[0] <= 0.5\ngini = 0.298\nsamples = 11\nvalue = [2, 9]"] ;
54 -> 68 ;
69 [label="gini = 0.32\nsamples = 10\nvalue = [2, 8]"] ;
68 -> 69 ;
70 [label="gini = 0.0\nsamples = 1\nvalue = [0, 1]"] ;
68 -> 70 ;
71 [label="gini = 0.5\nsamples = 2\nvalue = [1, 1]"] ;
53 -> 71 ;
72 [label="gini = 0.5\nsamples = 2\nvalue = [1, 1]"] ;
52 -> 72 ;
73 [label="gini = 0.5\nsamples = 2\nvalue = [1, 1]"] ;
51 -> 73 ;
74 [label="gini = 0.5\nsamples = 2\nvalue = [1, 1]"] ;
50 -> 74 ;
75 [label="gini = 0.0\nsamples = 1\nvalue = [1, 0]"] ;
49 -> 75 ;
76 [label="gini = 0.0\nsamples = 1\nvalue = [1, 0]"] ;
48 -> 76 ;
77 [label="gini = 0.0\nsamples = 1\nvalue = [1, 0]"] ;
47 -> 77 ;
78 [label="gini = 0.0\nsamples = 1\nvalue = [1, 0]"] ;
46 -> 78 ;
79 [label="gini = 0.0\nsamples = 1\nvalue = [1, 0]"] ;
45 -> 79 ;
80 [label="gini = 0.0\nsamples = 1\nvalue = [1, 0]"] ;
44 -> 80 ;
81 [label="gini = 0.0\nsamples = 1\nvalue = [1, 0]"] ;
43 -> 81 ;
82 [label="gini = 0.0\nsamples = 1\nvalue = [1, 0]"] ;
42 -> 82 ;
83 [label="gini = 0.0\nsamples = 1\nvalue = [1, 0]"] ;
41 -> 83 ;
84 [label="gini = 0.0\nsamples = 1\nvalue = [1, 0]"] ;
40 -> 84 ;
85 [label="gini = 0.0\nsamples = 1\nvalue = [1, 0]"] ;
39 -> 85 ;
86 [label="gini = 0.0\nsamples = 1\nvalue = [1, 0]"] ;
38 -> 86 ;
87 [label="gini = 0.0\nsamples = 1\nvalue = [1, 0]"] ;
37 -> 87 ;
88 [label="gini = 0.444\nsamples = 3\nvalue = [2, 1]"] ;
36 -> 88 ;
89 [label="gini = 0.0\nsamples = 2\nvalue = [2, 0]"] ;
35 -> 89 ;
90 [label="gini = 0.0\nsamples = 2\nvalue = [2, 0]"] ;
34 -> 90 ;
91 [label="gini = 0.0\nsamples = 2\nvalue = [2, 0]"] ;
33 -> 91 ;
92 [label="gini = 0.0\nsamples = 2\nvalue = [2, 0]"] ;
32 -> 92 ;
93 [label="gini = 0.0\nsamples = 2\nvalue = [2, 0]"] ;
31 -> 93 ;
94 [label="gini = 0.375\nsamples = 4\nvalue = [3, 1]"] ;
30 -> 94 ;
95 [label="gini = 0.0\nsamples = 4\nvalue = [4, 0]"] ;
19 -> 95 ;
96 [label="X[76] <= 0.5\ngini = 0.499\nsamples = 21\nvalue = [10, 11]"] ;
18 -> 96 ;
97 [label="X[80] <= 0.5\ngini = 0.499\nsamples = 19\nvalue = [10, 9]"] ;
96 -> 97 ;
98 [label="X[52] <= 0.5\ngini = 0.484\nsamples = 17\nvalue = [10, 7]"] ;
97 -> 98 ;
99 [label="X[48] <= 0.5\ngini = 0.469\nsamples = 16\nvalue = [10, 6]"] ;
98 -> 99 ;
100 [label="X[37] <= 0.5\ngini = 0.444\nsamples = 15\nvalue = [10, 5]"] ;
99 -> 100 ;
101 [label="X[33] <= 0.5\ngini = 0.408\nsamples = 14\nvalue = [10, 4]"] ;
100 -> 101 ;
102 [label="X[92] <= 0.5\ngini = 0.355\nsamples = 13\nvalue = [10, 3]"] ;
101 -> 102 ;
103 [label="X[79] <= 0.5\ngini = 0.278\nsamples = 12\nvalue = [10, 2]"] ;
102 -> 103 ;
104 [label="X[45] <= 0.5\ngini = 0.165\nsamples = 11\nvalue = [10, 1]"] ;
103 -> 104 ;
105 [label="X[74] <= 0.5\ngini = 0.18\nsamples = 10\nvalue = [9, 1]"] ;
104 -> 105 ;
106 [label="X[83] <= 0.5\ngini = 0.198\nsamples = 9\nvalue = [8, 1]"] ;
105 -> 106 ;
107 [label="X[32] <= 0.5\ngini = 0.219\nsamples = 8\nvalue = [7, 1]"] ;
106 -> 107 ;
108 [label="X[23] <= 0.5\ngini = 0.245\nsamples = 7\nvalue = [6, 1]"] ;
107 -> 108 ;
109 [label="X[46] <= 0.5\ngini = 0.278\nsamples = 6\nvalue = [5, 1]"] ;
108 -> 109 ;
110 [label="X[44] <= 0.5\ngini = 0.32\nsamples = 5\nvalue = [4, 1]"] ;
109 -> 110 ;
111 [label="X[36] <= 0.5\ngini = 0.375\nsamples = 4\nvalue = [3, 1]"] ;
110 -> 111 ;
112 [label="X[116] <= 0.5\ngini = 0.444\nsamples = 3\nvalue = [2, 1]"] ;
111 -> 112 ;
113 [label="X[90] <= 0.5\ngini = 0.5\nsamples = 2\nvalue = [1, 1]"] ;
112 -> 113 ;
114 [label="gini = 0.0\nsamples = 1\nvalue = [0, 1]"] ;
113 -> 114 ;
115 [label="gini = 0.0\nsamples = 1\nvalue = [1, 0]"] ;
113 -> 115 ;
116 [label="gini = 0.0\nsamples = 1\nvalue = [1, 0]"] ;
112 -> 116 ;
117 [label="gini = 0.0\nsamples = 1\nvalue = [1, 0]"] ;
111 -> 117 ;
118 [label="gini = 0.0\nsamples = 1\nvalue = [1, 0]"] ;
110 -> 118 ;
119 [label="gini = 0.0\nsamples = 1\nvalue = [1, 0]"] ;
109 -> 119 ;
120 [label="gini = 0.0\nsamples = 1\nvalue = [1, 0]"] ;
108 -> 120 ;
121 [label="gini = 0.0\nsamples = 1\nvalue = [1, 0]"] ;
107 -> 121 ;
122 [label="gini = 0.0\nsamples = 1\nvalue = [1, 0]"] ;
106 -> 122 ;
123 [label="gini = 0.0\nsamples = 1\nvalue = [1, 0]"] ;
105 -> 123 ;
124 [label="gini = 0.0\nsamples = 1\nvalue = [1, 0]"] ;
104 -> 124 ;
125 [label="gini = 0.0\nsamples = 1\nvalue = [0, 1]"] ;
103 -> 125 ;
126 [label="gini = 0.0\nsamples = 1\nvalue = [0, 1]"] ;
102 -> 126 ;
127 [label="gini = 0.0\nsamples = 1\nvalue = [0, 1]"] ;
101 -> 127 ;
128 [label="gini = 0.0\nsamples = 1\nvalue = [0, 1]"] ;
100 -> 128 ;
129 [label="gini = 0.0\nsamples = 1\nvalue = [0, 1]"] ;
99 -> 129 ;
130 [label="gini = 0.0\nsamples = 1\nvalue = [0, 1]"] ;
98 -> 130 ;
131 [label="gini = 0.0\nsamples = 2\nvalue = [0, 2]"] ;
97 -> 131 ;
132 [label="gini = 0.0\nsamples = 2\nvalue = [0, 2]"] ;
96 -> 132 ;
133 [label="X[115] <= 0.5\ngini = 0.5\nsamples = 24\nvalue = [12, 12]"] ;
17 -> 133 ;
134 [label="X[40] <= 0.5\ngini = 0.444\nsamples = 18\nvalue = [6, 12]"] ;
133 -> 134 ;
135 [label="X[93] <= 0.5\ngini = 0.32\nsamples = 15\nvalue = [3, 12]"] ;
134 -> 135 ;
136 [label="X[83] <= 0.5\ngini = 0.245\nsamples = 14\nvalue = [2, 12]"] ;
135 -> 136 ;
137 [label="X[80] <= 0.5\ngini = 0.142\nsamples = 13\nvalue = [1, 12]"] ;
136 -> 137 ;
138 [label="gini = 0.0\nsamples = 12\nvalue = [0, 12]"] ;
137 -> 138 ;
139 [label="gini = 0.0\nsamples = 1\nvalue = [1, 0]"] ;
137 -> 139 ;
140 [label="gini = 0.0\nsamples = 1\nvalue = [1, 0]"] ;
136 -> 140 ;
141 [label="gini = 0.0\nsamples = 1\nvalue = [1, 0]"] ;
135 -> 141 ;
142 [label="gini = 0.0\nsamples = 3\nvalue = [3, 0]"] ;
134 -> 142 ;
143 [label="gini = 0.0\nsamples = 6\nvalue = [6, 0]"] ;
133 -> 143 ;
144 [label="gini = 0.0\nsamples = 8\nvalue = [8, 0]"] ;
16 -> 144 ;
145 [label="X[55] <= 0.5\ngini = 0.432\nsamples = 19\nvalue = [13, 6]"] ;
15 -> 145 ;
146 [label="X[116] <= 0.5\ngini = 0.305\nsamples = 16\nvalue = [13, 3]"] ;
145 -> 146 ;
147 [label="X[8] <= 0.5\ngini = 0.231\nsamples = 15\nvalue = [13, 2]"] ;
146 -> 147 ;
148 [label="X[46] <= 0.5\ngini = 0.133\nsamples = 14\nvalue = [13, 1]"] ;
147 -> 148 ;
149 [label="gini = 0.0\nsamples = 11\nvalue = [11, 0]"] ;
148 -> 149 ;
150 [label="gini = 0.444\nsamples = 3\nvalue = [2, 1]"] ;
148 -> 150 ;
151 [label="gini = 0.0\nsamples = 1\nvalue = [0, 1]"] ;
147 -> 151 ;
152 [label="gini = 0.0\nsamples = 1\nvalue = [0, 1]"] ;
146 -> 152 ;
153 [label="gini = 0.0\nsamples = 3\nvalue = [0, 3]"] ;
145 -> 153 ;
154 [label="X[52] <= 0.5\ngini = 0.42\nsamples = 20\nvalue = [14, 6]"] ;
14 -> 154 ;
155 [label="X[37] <= 0.5\ngini = 0.346\nsamples = 18\nvalue = [14, 4]"] ;
154 -> 155 ;
156 [label="X[0] <= 0.5\ngini = 0.291\nsamples = 17\nvalue = [14, 3]"] ;
155 -> 156 ;
157 [label="X[100] <= 0.5\ngini = 0.219\nsamples = 16\nvalue = [14, 2]"] ;
156 -> 157 ;
158 [label="X[55] <= 0.5\ngini = 0.124\nsamples = 15\nvalue = [14, 1]"] ;
157 -> 158 ;
159 [label="gini = 0.0\nsamples = 14\nvalue = [14, 0]"] ;
158 -> 159 ;
160 [label="gini = 0.0\nsamples = 1\nvalue = [0, 1]"] ;
158 -> 160 ;
161 [label="gini = 0.0\nsamples = 1\nvalue = [0, 1]"] ;
157 -> 161 ;
162 [label="gini = 0.0\nsamples = 1\nvalue = [0, 1]"] ;
156 -> 162 ;
163 [label="gini = 0.0\nsamples = 1\nvalue = [0, 1]"] ;
155 -> 163 ;
164 [label="gini = 0.0\nsamples = 2\nvalue = [0, 2]"] ;
154 -> 164 ;
165 [label="X[0] <= 0.5\ngini = 0.477\nsamples = 79\nvalue = [31, 48]"] ;
13 -> 165 ;
166 [label="X[121] <= 0.5\ngini = 0.498\nsamples = 66\nvalue = [31, 35]"] ;
165 -> 166 ;
167 [label="X[37] <= 0.5\ngini = 0.492\nsamples = 62\nvalue = [27, 35]"] ;
166 -> 167 ;
168 [label="X[32] <= 0.5\ngini = 0.47\nsamples = 53\nvalue = [20, 33]"] ;
167 -> 168 ;
169 [label="X[33] <= 0.5\ngini = 0.449\nsamples = 50\nvalue = [17, 33]"] ;
168 -> 169 ;
170 [label="X[25] <= 0.5\ngini = 0.466\nsamples = 46\nvalue = [17, 29]"] ;
169 -> 170 ;
171 [label="X[99] <= 0.5\ngini = 0.458\nsamples = 45\nvalue = [16, 29]"] ;
170 -> 171 ;
172 [label="X[84] <= 0.5\ngini = 0.449\nsamples = 44\nvalue = [15, 29]"] ;
171 -> 172 ;
173 [label="X[79] <= 0.5\ngini = 0.439\nsamples = 43\nvalue = [14, 29]"] ;
172 -> 173 ;
174 [label="X[78] <= 0.5\ngini = 0.427\nsamples = 42\nvalue = [13, 29]"] ;
173 -> 174 ;
175 [label="X[3] <= 0.5\ngini = 0.414\nsamples = 41\nvalue = [12, 29]"] ;
174 -> 175 ;
176 [label="X[96] <= 0.5\ngini = 0.399\nsamples = 40\nvalue = [11, 29]"] ;
175 -> 176 ;
177 [label="X[117] <= 0.5\ngini = 0.381\nsamples = 39\nvalue = [10, 29]"] ;
176 -> 177 ;
178 [label="X[23] <= 0.5\ngini = 0.361\nsamples = 38\nvalue = [9, 29]"] ;
177 -> 178 ;
179 [label="X[115] <= 0.5\ngini = 0.339\nsamples = 37\nvalue = [8, 29]"] ;
178 -> 179 ;
180 [label="X[74] <= 0.5\ngini = 0.313\nsamples = 36\nvalue = [7, 29]"] ;
179 -> 180 ;
181 [label="X[47] <= 0.5\ngini = 0.284\nsamples = 35\nvalue = [6, 29]"] ;
180 -> 181 ;
182 [label="X[46] <= 0.5\ngini = 0.251\nsamples = 34\nvalue = [5, 29]"] ;
181 -> 182 ;
183 [label="X[43] <= 0.5\ngini = 0.185\nsamples = 29\nvalue = [3, 26]"] ;
182 -> 183 ;
184 [label="X[57] <= 0.5\ngini = 0.137\nsamples = 27\nvalue = [2, 25]"] ;
183 -> 184 ;
185 [label="X[6] <= 0.5\ngini = 0.077\nsamples = 25\nvalue = [1, 24]"] ;
184 -> 185 ;
186 [label="gini = 0.0\nsamples = 21\nvalue = [0, 21]"] ;
185 -> 186 ;
187 [label="gini = 0.375\nsamples = 4\nvalue = [1, 3]"] ;
185 -> 187 ;
188 [label="gini = 0.5\nsamples = 2\nvalue = [1, 1]"] ;
184 -> 188 ;
189 [label="gini = 0.5\nsamples = 2\nvalue = [1, 1]"] ;
183 -> 189 ;
190 [label="gini = 0.48\nsamples = 5\nvalue = [2, 3]"] ;
182 -> 190 ;
191 [label="gini = 0.0\nsamples = 1\nvalue = [1, 0]"] ;
181 -> 191 ;
192 [label="gini = 0.0\nsamples = 1\nvalue = [1, 0]"] ;
180 -> 192 ;
193 [label="gini = 0.0\nsamples = 1\nvalue = [1, 0]"] ;
179 -> 193 ;
194 [label="gini = 0.0\nsamples = 1\nvalue = [1, 0]"] ;
178 -> 194 ;
195 [label="gini = 0.0\nsamples = 1\nvalue = [1, 0]"] ;
177 -> 195 ;
196 [label="gini = 0.0\nsamples = 1\nvalue = [1, 0]"] ;
176 -> 196 ;
197 [label="gini = 0.0\nsamples = 1\nvalue = [1, 0]"] ;
175 -> 197 ;
198 [label="gini = 0.0\nsamples = 1\nvalue = [1, 0]"] ;
174 -> 198 ;
199 [label="gini = 0.0\nsamples = 1\nvalue = [1, 0]"] ;
173 -> 199 ;
200 [label="gini = 0.0\nsamples = 1\nvalue = [1, 0]"] ;
172 -> 200 ;
201 [label="gini = 0.0\nsamples = 1\nvalue = [1, 0]"] ;
171 -> 201 ;
202 [label="gini = 0.0\nsamples = 1\nvalue = [1, 0]"] ;
170 -> 202 ;
203 [label="gini = 0.0\nsamples = 4\nvalue = [0, 4]"] ;
169 -> 203 ;
204 [label="gini = 0.0\nsamples = 3\nvalue = [3, 0]"] ;
168 -> 204 ;
205 [label="gini = 0.346\nsamples = 9\nvalue = [7, 2]"] ;
167 -> 205 ;
206 [label="gini = 0.0\nsamples = 4\nvalue = [4, 0]"] ;
166 -> 206 ;
207 [label="gini = 0.0\nsamples = 13\nvalue = [0, 13]"] ;
165 -> 207 ;
208 [label="X[0] <= 0.5\ngini = 0.495\nsamples = 62\nvalue = [28, 34]"] ;
12 -> 208 ;
209 [label="X[76] <= 0.5\ngini = 0.426\nsamples = 39\nvalue = [27, 12]"] ;
208 -> 209 ;
210 [label="X[52] <= 0.5\ngini = 0.375\nsamples = 36\nvalue = [27, 9]"] ;
209 -> 210 ;
211 [label="X[6] <= 0.5\ngini = 0.327\nsamples = 34\nvalue = [27, 7]"] ;
210 -> 211 ;
212 [label="X[64] <= 0.5\ngini = 0.298\nsamples = 33\nvalue = [27, 6]"] ;
211 -> 212 ;
213 [label="X[44] <= 0.5\ngini = 0.264\nsamples = 32\nvalue = [27, 5]"] ;
212 -> 213 ;
214 [label="X[37] <= 0.5\ngini = 0.225\nsamples = 31\nvalue = [27, 4]"] ;
213 -> 214 ;
215 [label="X[57] <= 0.5\ngini = 0.142\nsamples = 26\nvalue = [24, 2]"] ;
214 -> 215 ;
216 [label="X[14] <= 0.5\ngini = 0.08\nsamples = 24\nvalue = [23, 1]"] ;
215 -> 216 ;
217 [label="gini = 0.0\nsamples = 22\nvalue = [22, 0]"] ;
216 -> 217 ;
218 [label="gini = 0.5\nsamples = 2\nvalue = [1, 1]"] ;
216 -> 218 ;
219 [label="gini = 0.5\nsamples = 2\nvalue = [1, 1]"] ;
215 -> 219 ;
220 [label="gini = 0.48\nsamples = 5\nvalue = [3, 2]"] ;
214 -> 220 ;
221 [label="gini = 0.0\nsamples = 1\nvalue = [0, 1]"] ;
213 -> 221 ;
222 [label="gini = 0.0\nsamples = 1\nvalue = [0, 1]"] ;
212 -> 222 ;
223 [label="gini = 0.0\nsamples = 1\nvalue = [0, 1]"] ;
211 -> 223 ;
224 [label="gini = 0.0\nsamples = 2\nvalue = [0, 2]"] ;
210 -> 224 ;
225 [label="gini = 0.0\nsamples = 3\nvalue = [0, 3]"] ;
209 -> 225 ;
226 [label="X[40] <= 0.5\ngini = 0.083\nsamples = 23\nvalue = [1, 22]"] ;
208 -> 226 ;
227 [label="gini = 0.0\nsamples = 22\nvalue = [0, 22]"] ;
226 -> 227 ;
228 [label="gini = 0.0\nsamples = 1\nvalue = [1, 0]"] ;
226 -> 228 ;
229 [label="X[52] <= 0.5\ngini = 0.435\nsamples = 25\nvalue = [17, 8]"] ;
11 -> 229 ;
230 [label="X[6] <= 0.5\ngini = 0.386\nsamples = 23\nvalue = [17, 6]"] ;
229 -> 230 ;
231 [label="X[37] <= 0.5\ngini = 0.351\nsamples = 22\nvalue = [17, 5]"] ;
230 -> 231 ;
232 [label="X[8] <= 0.5\ngini = 0.308\nsamples = 21\nvalue = [17, 4]"] ;
231 -> 232 ;
233 [label="X[46] <= 0.5\ngini = 0.255\nsamples = 20\nvalue = [17, 3]"] ;
232 -> 233 ;
234 [label="X[32] <= 0.5\ngini = 0.198\nsamples = 18\nvalue = [16, 2]"] ;
233 -> 234 ;
235 [label="X[110] <= 0.5\ngini = 0.124\nsamples = 15\nvalue = [14, 1]"] ;
234 -> 235 ;
236 [label="X[79] <= 0.5\ngini = 0.18\nsamples = 10\nvalue = [9, 1]"] ;
235 -> 236 ;
237 [label="X[73] <= 0.5\ngini = 0.219\nsamples = 8\nvalue = [7, 1]"] ;
236 -> 237 ;
238 [label="X[36] <= 0.5\ngini = 0.278\nsamples = 6\nvalue = [5, 1]"] ;
237 -> 238 ;
239 [label="X[10] <= 0.5\ngini = 0.32\nsamples = 5\nvalue = [4, 1]"] ;
238 -> 239 ;
240 [label="X[96] <= 0.5\ngini = 0.375\nsamples = 4\nvalue = [3, 1]"] ;
239 -> 240 ;
241 [label="X[99] <= 0.5\ngini = 0.444\nsamples = 3\nvalue = [2, 1]"] ;
240 -> 241 ;
242 [label="X[44] <= 0.5\ngini = 0.5\nsamples = 2\nvalue = [1, 1]"] ;
241 -> 242 ;
243 [label="gini = 0.0\nsamples = 1\nvalue = [0, 1]"] ;
242 -> 243 ;
244 [label="gini = 0.0\nsamples = 1\nvalue = [1, 0]"] ;
242 -> 244 ;
245 [label="gini = 0.0\nsamples = 1\nvalue = [1, 0]"] ;
241 -> 245 ;
246 [label="gini = 0.0\nsamples = 1\nvalue = [1, 0]"] ;
240 -> 246 ;
247 [label="gini = 0.0\nsamples = 1\nvalue = [1, 0]"] ;
239 -> 247 ;
248 [label="gini = 0.0\nsamples = 1\nvalue = [1, 0]"] ;
238 -> 248 ;
249 [label="gini = 0.0\nsamples = 2\nvalue = [2, 0]"] ;
237 -> 249 ;
250 [label="gini = 0.0\nsamples = 2\nvalue = [2, 0]"] ;
236 -> 250 ;
251 [label="gini = 0.0\nsamples = 5\nvalue = [5, 0]"] ;
235 -> 251 ;
252 [label="gini = 0.444\nsamples = 3\nvalue = [2, 1]"] ;
234 -> 252 ;
253 [label="gini = 0.5\nsamples = 2\nvalue = [1, 1]"] ;
233 -> 253 ;
254 [label="gini = 0.0\nsamples = 1\nvalue = [0, 1]"] ;
232 -> 254 ;
255 [label="gini = 0.0\nsamples = 1\nvalue = [0, 1]"] ;
231 -> 255 ;
256 [label="gini = 0.0\nsamples = 1\nvalue = [0, 1]"] ;
230 -> 256 ;
257 [label="gini = 0.0\nsamples = 2\nvalue = [0, 2]"] ;
229 -> 257 ;
258 [label="X[58] <= 0.5\ngini = 0.489\nsamples = 132\nvalue = [56, 76]"] ;
10 -> 258 ;
259 [label="X[52] <= 0.5\ngini = 0.467\nsamples = 121\nvalue = [45, 76]"] ;
258 -> 259 ;
260 [label="X[7] <= 0.5\ngini = 0.485\nsamples = 109\nvalue = [45, 64]"] ;
259 -> 260 ;
261 [label="X[36] <= 0.5\ngini = 0.478\nsamples = 106\nvalue = [42, 64]"] ;
260 -> 261 ;
262 [label="X[96] <= 0.5\ngini = 0.473\nsamples = 104\nvalue = [40, 64]"] ;
261 -> 262 ;
263 [label="X[110] <= 0.5\ngini = 0.468\nsamples = 102\nvalue = [38, 64]"] ;
262 -> 263 ;
264 [label="X[99] <= 0.5\ngini = 0.461\nsamples = 100\nvalue = [36, 64]"] ;
263 -> 264 ;
265 [label="X[88] <= 0.5\ngini = 0.457\nsamples = 99\nvalue = [35, 64]"] ;
264 -> 265 ;
266 [label="X[18] <= 0.5\ngini = 0.453\nsamples = 98\nvalue = [34, 64]"] ;
265 -> 266 ;
267 [label="X[97] <= 0.5\ngini = 0.449\nsamples = 97\nvalue = [33, 64]"] ;
266 -> 267 ;
268 [label="X[37] <= 0.5\ngini = 0.444\nsamples = 96\nvalue = [32, 64]"] ;
267 -> 268 ;
269 [label="X[123] <= 0.5\ngini = 0.424\nsamples = 82\nvalue = [25, 57]"] ;
268 -> 269 ;
270 [label="X[122] <= 0.5\ngini = 0.417\nsamples = 81\nvalue = [24, 57]"] ;
269 -> 270 ;
271 [label="X[78] <= 0.5\ngini = 0.41\nsamples = 80\nvalue = [23, 57]"] ;
270 -> 271 ;
272 [label="X[90] <= 0.5\ngini = 0.402\nsamples = 79\nvalue = [22, 57]"] ;
271 -> 272 ;
273 [label="X[20] <= 0.5\ngini = 0.393\nsamples = 78\nvalue = [21, 57]"] ;
272 -> 273 ;
274 [label="X[80] <= 0.5\ngini = 0.385\nsamples = 77\nvalue = [20, 57]"] ;
273 -> 274 ;
275 [label="X[46] <= 0.5\ngini = 0.364\nsamples = 71\nvalue = [17, 54]"] ;
274 -> 275 ;
276 [label="X[92] <= 0.5\ngini = 0.3\nsamples = 49\nvalue = [9, 40]"] ;
275 -> 276 ;
277 [label="X[43] <= 0.5\ngini = 0.234\nsamples = 37\nvalue = [5, 32]"] ;
276 -> 277 ;
278 [label="X[44] <= 0.5\ngini = 0.202\nsamples = 35\nvalue = [4, 31]"] ;
277 -> 278 ;
279 [label="X[8] <= 0.5\ngini = 0.128\nsamples = 29\nvalue = [2, 27]"] ;
278 -> 279 ;
280 [label="gini = 0.0\nsamples = 21\nvalue = [0, 21]"] ;
279 -> 280 ;
281 [label="gini = 0.375\nsamples = 8\nvalue = [2, 6]"] ;
279 -> 281 ;
282 [label="gini = 0.444\nsamples = 6\nvalue = [2, 4]"] ;
278 -> 282 ;
283 [label="gini = 0.5\nsamples = 2\nvalue = [1, 1]"] ;
277 -> 283 ;
284 [label="gini = 0.444\nsamples = 12\nvalue = [4, 8]"] ;
276 -> 284 ;
285 [label="gini = 0.463\nsamples = 22\nvalue = [8, 14]"] ;
275 -> 285 ;
286 [label="gini = 0.5\nsamples = 6\nvalue = [3, 3]"] ;
274 -> 286 ;
287 [label="gini = 0.0\nsamples = 1\nvalue = [1, 0]"] ;
273 -> 287 ;
288 [label="gini = 0.0\nsamples = 1\nvalue = [1, 0]"] ;
272 -> 288 ;
289 [label="gini = 0.0\nsamples = 1\nvalue = [1, 0]"] ;
271 -> 289 ;
290 [label="gini = 0.0\nsamples = 1\nvalue = [1, 0]"] ;
270 -> 290 ;
291 [label="gini = 0.0\nsamples = 1\nvalue = [1, 0]"] ;
269 -> 291 ;
292 [label="gini = 0.5\nsamples = 14\nvalue = [7, 7]"] ;
268 -> 292 ;
293 [label="gini = 0.0\nsamples = 1\nvalue = [1, 0]"] ;
267 -> 293 ;
294 [label="gini = 0.0\nsamples = 1\nvalue = [1, 0]"] ;
266 -> 294 ;
295 [label="gini = 0.0\nsamples = 1\nvalue = [1, 0]"] ;
265 -> 295 ;
296 [label="gini = 0.0\nsamples = 1\nvalue = [1, 0]"] ;
264 -> 296 ;
297 [label="gini = 0.0\nsamples = 2\nvalue = [2, 0]"] ;
263 -> 297 ;
298 [label="gini = 0.0\nsamples = 2\nvalue = [2, 0]"] ;
262 -> 298 ;
299 [label="gini = 0.0\nsamples = 2\nvalue = [2, 0]"] ;
261 -> 299 ;
300 [label="gini = 0.0\nsamples = 3\nvalue = [3, 0]"] ;
260 -> 300 ;
301 [label="gini = 0.0\nsamples = 12\nvalue = [0, 12]"] ;
259 -> 301 ;
302 [label="gini = 0.0\nsamples = 11\nvalue = [11, 0]"] ;
258 -> 302 ;
303 [label="X[146] <= 0.5\ngini = 0.484\nsamples = 105\nvalue = [62, 43]"] ;
9 -> 303 ;
304 [label="X[129] <= 0.5\ngini = 0.496\nsamples = 95\nvalue = [52, 43]"] ;
303 -> 304 ;
305 [label="X[137] <= 0.5\ngini = 0.5\nsamples = 81\nvalue = [41, 40]"] ;
304 -> 305 ;
306 [label="X[139] <= 0.5\ngini = 0.494\nsamples = 63\nvalue = [28, 35]"] ;
305 -> 306 ;
307 [label="X[141] <= 0.5\ngini = 0.483\nsamples = 59\nvalue = [24, 35]"] ;
306 -> 307 ;
308 [label="X[135] <= 0.5\ngini = 0.463\nsamples = 55\nvalue = [20, 35]"] ;
307 -> 308 ;
309 [label="X[61] <= 0.5\ngini = 0.425\nsamples = 49\nvalue = [15, 34]"] ;
308 -> 309 ;
310 [label="X[111] <= 0.5\ngini = 0.4\nsamples = 47\nvalue = [13, 34]"] ;
309 -> 310 ;
311 [label="X[136] <= 0.5\ngini = 0.369\nsamples = 45\nvalue = [11, 34]"] ;
310 -> 311 ;
312 [label="X[128] <= 0.5\ngini = 0.331\nsamples = 43\nvalue = [9, 34]"] ;
311 -> 312 ;
313 [label="X[37] <= 0.5\ngini = 0.198\nsamples = 27\nvalue = [3, 24]"] ;
312 -> 313 ;
314 [label="X[93] <= 0.5\ngini = 0.142\nsamples = 26\nvalue = [2, 24]"] ;
313 -> 314 ;
315 [label="X[16] <= 0.5\ngini = 0.077\nsamples = 25\nvalue = [1, 24]"] ;
314 -> 315 ;
316 [label="gini = 0.0\nsamples = 24\nvalue = [0, 24]"] ;
315 -> 316 ;
317 [label="gini = 0.0\nsamples = 1\nvalue = [1, 0]"] ;
315 -> 317 ;
318 [label="gini = 0.0\nsamples = 1\nvalue = [1, 0]"] ;
314 -> 318 ;
319 [label="gini = 0.0\nsamples = 1\nvalue = [1, 0]"] ;
313 -> 319 ;
320 [label="X[2] <= 0.5\ngini = 0.469\nsamples = 16\nvalue = [6, 10]"] ;
312 -> 320 ;
321 [label="X[5] <= 0.5\ngini = 0.444\nsamples = 15\nvalue = [5, 10]"] ;
320 -> 321 ;
322 [label="X[50] <= 0.5\ngini = 0.408\nsamples = 14\nvalue = [4, 10]"] ;
321 -> 322 ;
323 [label="X[44] <= 0.5\ngini = 0.355\nsamples = 13\nvalue = [3, 10]"] ;
322 -> 323 ;
324 [label="X[4] <= 0.5\ngini = 0.278\nsamples = 12\nvalue = [2, 10]"] ;
323 -> 324 ;
325 [label="X[97] <= 0.5\ngini = 0.165\nsamples = 11\nvalue = [1, 10]"] ;
324 -> 325 ;
326 [label="gini = 0.0\nsamples = 10\nvalue = [0, 10]"] ;
325 -> 326 ;
327 [label="gini = 0.0\nsamples = 1\nvalue = [1, 0]"] ;
325 -> 327 ;
328 [label="gini = 0.0\nsamples = 1\nvalue = [1, 0]"] ;
324 -> 328 ;
329 [label="gini = 0.0\nsamples = 1\nvalue = [1, 0]"] ;
323 -> 329 ;
330 [label="gini = 0.0\nsamples = 1\nvalue = [1, 0]"] ;
322 -> 330 ;
331 [label="gini = 0.0\nsamples = 1\nvalue = [1, 0]"] ;
321 -> 331 ;
332 [label="gini = 0.0\nsamples = 1\nvalue = [1, 0]"] ;
320 -> 332 ;
333 [label="gini = 0.0\nsamples = 2\nvalue = [2, 0]"] ;
311 -> 333 ;
334 [label="gini = 0.0\nsamples = 2\nvalue = [2, 0]"] ;
310 -> 334 ;
335 [label="gini = 0.0\nsamples = 2\nvalue = [2, 0]"] ;
309 -> 335 ;
336 [label="X[43] <= 0.5\ngini = 0.278\nsamples = 6\nvalue = [5, 1]"] ;
308 -> 336 ;
337 [label="gini = 0.0\nsamples = 5\nvalue = [5, 0]"] ;
336 -> 337 ;
338 [label="gini = 0.0\nsamples = 1\nvalue = [0, 1]"] ;
336 -> 338 ;
339 [label="gini = 0.0\nsamples = 4\nvalue = [4, 0]"] ;
307 -> 339 ;
340 [label="gini = 0.0\nsamples = 4\nvalue = [4, 0]"] ;
306 -> 340 ;
341 [label="X[52] <= 0.5\ngini = 0.401\nsamples = 18\nvalue = [13, 5]"] ;
305 -> 341 ;
342 [label="X[37] <= 0.5\ngini = 0.36\nsamples = 17\nvalue = [13, 4]"] ;
341 -> 342 ;
343 [label="X[92] <= 0.5\ngini = 0.305\nsamples = 16\nvalue = [13, 3]"] ;
342 -> 343 ;
344 [label="X[55] <= 0.5\ngini = 0.231\nsamples = 15\nvalue = [13, 2]"] ;
343 -> 344 ;
345 [label="X[46] <= 0.5\ngini = 0.133\nsamples = 14\nvalue = [13, 1]"] ;
344 -> 345 ;
346 [label="gini = 0.0\nsamples = 11\nvalue = [11, 0]"] ;
345 -> 346 ;
347 [label="gini = 0.444\nsamples = 3\nvalue = [2, 1]"] ;
345 -> 347 ;
348 [label="gini = 0.0\nsamples = 1\nvalue = [0, 1]"] ;
344 -> 348 ;
349 [label="gini = 0.0\nsamples = 1\nvalue = [0, 1]"] ;
343 -> 349 ;
350 [label="gini = 0.0\nsamples = 1\nvalue = [0, 1]"] ;
342 -> 350 ;
351 [label="gini = 0.0\nsamples = 1\nvalue = [0, 1]"] ;
341 -> 351 ;
352 [label="X[60] <= 0.5\ngini = 0.337\nsamples = 14\nvalue = [11, 3]"] ;
304 -> 352 ;
353 [label="X[0] <= 0.5\ngini = 0.26\nsamples = 13\nvalue = [11, 2]"] ;
352 -> 353 ;
354 [label="X[46] <= 0.5\ngini = 0.153\nsamples = 12\nvalue = [11, 1]"] ;
353 -> 354 ;
355 [label="X[121] <= 0.5\ngini = 0.18\nsamples = 10\nvalue = [9, 1]"] ;
354 -> 355 ;
356 [label="X[90] <= 0.5\ngini = 0.219\nsamples = 8\nvalue = [7, 1]"] ;
355 -> 356 ;
357 [label="X[79] <= 0.5\ngini = 0.278\nsamples = 6\nvalue = [5, 1]"] ;
356 -> 357 ;
358 [label="X[57] <= 0.5\ngini = 0.32\nsamples = 5\nvalue = [4, 1]"] ;
357 -> 358 ;
359 [label="X[8] <= 0.5\ngini = 0.375\nsamples = 4\nvalue = [3, 1]"] ;
358 -> 359 ;
360 [label="X[19] <= 0.5\ngini = 0.444\nsamples = 3\nvalue = [2, 1]"] ;
359 -> 360 ;
361 [label="X[59] <= 0.5\ngini = 0.5\nsamples = 2\nvalue = [1, 1]"] ;
360 -> 361 ;
362 [label="gini = 0.0\nsamples = 1\nvalue = [0, 1]"] ;
361 -> 362 ;
363 [label="gini = 0.0\nsamples = 1\nvalue = [1, 0]"] ;
361 -> 363 ;
364 [label="gini = 0.0\nsamples = 1\nvalue = [1, 0]"] ;
360 -> 364 ;
365 [label="gini = 0.0\nsamples = 1\nvalue = [1, 0]"] ;
359 -> 365 ;
366 [label="gini = 0.0\nsamples = 1\nvalue = [1, 0]"] ;
358 -> 366 ;
367 [label="gini = 0.0\nsamples = 1\nvalue = [1, 0]"] ;
357 -> 367 ;
368 [label="gini = 0.0\nsamples = 2\nvalue = [2, 0]"] ;
356 -> 368 ;
369 [label="gini = 0.0\nsamples = 2\nvalue = [2, 0]"] ;
355 -> 369 ;
370 [label="gini = 0.0\nsamples = 2\nvalue = [2, 0]"] ;
354 -> 370 ;
371 [label="gini = 0.0\nsamples = 1\nvalue = [0, 1]"] ;
353 -> 371 ;
372 [label="gini = 0.0\nsamples = 1\nvalue = [0, 1]"] ;
352 -> 372 ;
373 [label="gini = 0.0\nsamples = 10\nvalue = [10, 0]"] ;
303 -> 373 ;
374 [label="X[0] <= 0.5\ngini = 0.386\nsamples = 88\nvalue = [65, 23]"] ;
8 -> 374 ;
375 [label="X[76] <= 0.5\ngini = 0.343\nsamples = 82\nvalue = [64, 18]"] ;
374 -> 375 ;
376 [label="X[6] <= 0.5\ngini = 0.32\nsamples = 80\nvalue = [64, 16]"] ;
375 -> 376 ;
377 [label="X[52] <= 0.5\ngini = 0.298\nsamples = 77\nvalue = [63, 14]"] ;
376 -> 377 ;
378 [label="X[57] <= 0.5\ngini = 0.284\nsamples = 76\nvalue = [63, 13]"] ;
377 -> 378 ;
379 [label="X[37] <= 0.5\ngini = 0.245\nsamples = 70\nvalue = [60, 10]"] ;
378 -> 379 ;
380 [label="X[55] <= 0.5\ngini = 0.195\nsamples = 64\nvalue = [57, 7]"] ;
379 -> 380 ;
381 [label="X[115] <= 0.5\ngini = 0.172\nsamples = 63\nvalue = [57, 6]"] ;
380 -> 381 ;
382 [label="X[46] <= 0.5\ngini = 0.15\nsamples = 61\nvalue = [56, 5]"] ;
381 -> 382 ;
383 [label="X[79] <= 0.5\ngini = 0.131\nsamples = 57\nvalue = [53, 4]"] ;
382 -> 383 ;
384 [label="X[61] <= 0.5\ngini = 0.109\nsamples = 52\nvalue = [49, 3]"] ;
383 -> 384 ;
385 [label="X[110] <= 0.5\ngini = 0.142\nsamples = 39\nvalue = [36, 3]"] ;
384 -> 385 ;
386 [label="X[54] <= 0.5\ngini = 0.165\nsamples = 33\nvalue = [30, 3]"] ;
385 -> 386 ;
387 [label="X[78] <= 0.5\ngini = 0.198\nsamples = 27\nvalue = [24, 3]"] ;
386 -> 387 ;
388 [label="X[147] <= 0.5\ngini = 0.219\nsamples = 24\nvalue = [21, 3]"] ;
387 -> 388 ;
389 [label="X[93] <= 0.5\ngini = 0.188\nsamples = 19\nvalue = [17, 2]"] ;
388 -> 389 ;
390 [label="X[122] <= 0.5\ngini = 0.208\nsamples = 17\nvalue = [15, 2]"] ;
389 -> 390 ;
391 [label="X[96] <= 0.5\ngini = 0.231\nsamples = 15\nvalue = [13, 2]"] ;
390 -> 391 ;
392 [label="X[35] <= 0.5\ngini = 0.26\nsamples = 13\nvalue = [11, 2]"] ;
391 -> 392 ;
393 [label="X[62] <= 0.5\ngini = 0.278\nsamples = 12\nvalue = [10, 2]"] ;
392 -> 393 ;
394 [label="X[92] <= 0.5\ngini = 0.298\nsamples = 11\nvalue = [9, 2]"] ;
393 -> 394 ;
395 [label="X[97] <= 0.5\ngini = 0.32\nsamples = 10\nvalue = [8, 2]"] ;
394 -> 395 ;
396 [label="X[80] <= 0.5\ngini = 0.346\nsamples = 9\nvalue = [7, 2]"] ;
395 -> 396 ;
397 [label="X[94] <= 0.5\ngini = 0.375\nsamples = 8\nvalue = [6, 2]"] ;
396 -> 397 ;
398 [label="X[40] <= 0.5\ngini = 0.408\nsamples = 7\nvalue = [5, 2]"] ;
397 -> 398 ;
399 [label="X[25] <= 0.5\ngini = 0.444\nsamples = 6\nvalue = [4, 2]"] ;
398 -> 399 ;
400 [label="X[32] <= 0.5\ngini = 0.48\nsamples = 5\nvalue = [3, 2]"] ;
399 -> 400 ;
401 [label="X[111] <= 0.5\ngini = 0.5\nsamples = 4\nvalue = [2, 2]"] ;
400 -> 401 ;
402 [label="X[8] <= 0.5\ngini = 0.444\nsamples = 3\nvalue = [1, 2]"] ;
401 -> 402 ;
403 [label="gini = 0.0\nsamples = 2\nvalue = [0, 2]"] ;
402 -> 403 ;
404 [label="gini = 0.0\nsamples = 1\nvalue = [1, 0]"] ;
402 -> 404 ;
405 [label="gini = 0.0\nsamples = 1\nvalue = [1, 0]"] ;
401 -> 405 ;
406 [label="gini = 0.0\nsamples = 1\nvalue = [1, 0]"] ;
400 -> 406 ;
407 [label="gini = 0.0\nsamples = 1\nvalue = [1, 0]"] ;
399 -> 407 ;
408 [label="gini = 0.0\nsamples = 1\nvalue = [1, 0]"] ;
398 -> 408 ;
409 [label="gini = 0.0\nsamples = 1\nvalue = [1, 0]"] ;
397 -> 409 ;
410 [label="gini = 0.0\nsamples = 1\nvalue = [1, 0]"] ;
396 -> 410 ;
411 [label="gini = 0.0\nsamples = 1\nvalue = [1, 0]"] ;
395 -> 411 ;
412 [label="gini = 0.0\nsamples = 1\nvalue = [1, 0]"] ;
394 -> 412 ;
413 [label="gini = 0.0\nsamples = 1\nvalue = [1, 0]"] ;
393 -> 413 ;
414 [label="gini = 0.0\nsamples = 1\nvalue = [1, 0]"] ;
392 -> 414 ;
415 [label="gini = 0.0\nsamples = 2\nvalue = [2, 0]"] ;
391 -> 415 ;
416 [label="gini = 0.0\nsamples = 2\nvalue = [2, 0]"] ;
390 -> 416 ;
417 [label="gini = 0.0\nsamples = 2\nvalue = [2, 0]"] ;
389 -> 417 ;
418 [label="X[62] <= 0.5\ngini = 0.32\nsamples = 5\nvalue = [4, 1]"] ;
388 -> 418 ;
419 [label="X[44] <= 0.5\ngini = 0.375\nsamples = 4\nvalue = [3, 1]"] ;
418 -> 419 ;
420 [label="X[80] <= 0.5\ngini = 0.444\nsamples = 3\nvalue = [2, 1]"] ;
419 -> 420 ;
421 [label="X[102] <= 0.5\ngini = 0.5\nsamples = 2\nvalue = [1, 1]"] ;
420 -> 421 ;
422 [label="gini = 0.0\nsamples = 1\nvalue = [0, 1]"] ;
421 -> 422 ;
423 [label="gini = 0.0\nsamples = 1\nvalue = [1, 0]"] ;
421 -> 423 ;
424 [label="gini = 0.0\nsamples = 1\nvalue = [1, 0]"] ;
420 -> 424 ;
425 [label="gini = 0.0\nsamples = 1\nvalue = [1, 0]"] ;
419 -> 425 ;
426 [label="gini = 0.0\nsamples = 1\nvalue = [1, 0]"] ;
418 -> 426 ;
427 [label="gini = 0.0\nsamples = 3\nvalue = [3, 0]"] ;
387 -> 427 ;
428 [label="gini = 0.0\nsamples = 6\nvalue = [6, 0]"] ;
386 -> 428 ;
429 [label="gini = 0.0\nsamples = 6\nvalue = [6, 0]"] ;
385 -> 429 ;
430 [label="gini = 0.0\nsamples = 13\nvalue = [13, 0]"] ;
384 -> 430 ;
431 [label="X[147] <= 0.5\ngini = 0.32\nsamples = 5\nvalue = [4, 1]"] ;
383 -> 431 ;
432 [label="gini = 0.375\nsamples = 4\nvalue = [3, 1]"] ;
431 -> 432 ;
433 [label="gini = 0.0\nsamples = 1\nvalue = [1, 0]"] ;
431 -> 433 ;
434 [label="gini = 0.375\nsamples = 4\nvalue = [3, 1]"] ;
382 -> 434 ;
435 [label="gini = 0.5\nsamples = 2\nvalue = [1, 1]"] ;
381 -> 435 ;
436 [label="gini = 0.0\nsamples = 1\nvalue = [0, 1]"] ;
380 -> 436 ;
437 [label="gini = 0.5\nsamples = 6\nvalue = [3, 3]"] ;
379 -> 437 ;
438 [label="X[147] <= 0.5\ngini = 0.5\nsamples = 6\nvalue = [3, 3]"] ;
378 -> 438 ;
439 [label="gini = 0.48\nsamples = 5\nvalue = [3, 2]"] ;
438 -> 439 ;
440 [label="gini = 0.0\nsamples = 1\nvalue = [0, 1]"] ;
438 -> 440 ;
441 [label="gini = 0.0\nsamples = 1\nvalue = [0, 1]"] ;
377 -> 441 ;
442 [label="gini = 0.444\nsamples = 3\nvalue = [1, 2]"] ;
376 -> 442 ;
443 [label="gini = 0.0\nsamples = 2\nvalue = [0, 2]"] ;
375 -> 443 ;
444 [label="X[40] <= 0.5\ngini = 0.278\nsamples = 6\nvalue = [1, 5]"] ;
374 -> 444 ;
445 [label="gini = 0.0\nsamples = 5\nvalue = [0, 5]"] ;
444 -> 445 ;
446 [label="gini = 0.0\nsamples = 1\nvalue = [1, 0]"] ;
444 -> 446 ;
447 [label="X[0] <= 0.5\ngini = 0.443\nsamples = 169\nvalue = [113, 56]"] ;
7 -> 447 ;
448 [label="X[76] <= 0.5\ngini = 0.38\nsamples = 149\nvalue = [111, 38]"] ;
447 -> 448 ;
449 [label="X[64] <= 0.5\ngini = 0.315\nsamples = 138\nvalue = [111, 27]"] ;
448 -> 449 ;
450 [label="X[91] <= 0.5\ngini = 0.3\nsamples = 136\nvalue = [111, 25]"] ;
449 -> 450 ;
451 [label="X[52] <= 0.5\ngini = 0.284\nsamples = 134\nvalue = [111, 23]"] ;
450 -> 451 ;
452 [label="X[43] <= 0.5\ngini = 0.268\nsamples = 132\nvalue = [111, 21]"] ;
451 -> 452 ;
453 [label="X[33] <= 0.5\ngini = 0.25\nsamples = 130\nvalue = [111, 19]"] ;
452 -> 453 ;
454 [label="X[47] <= 0.5\ngini = 0.24\nsamples = 129\nvalue = [111, 18]"] ;
453 -> 454 ;
455 [label="X[34] <= 0.5\ngini = 0.23\nsamples = 128\nvalue = [111, 17]"] ;
454 -> 455 ;
456 [label="X[92] <= 0.5\ngini = 0.22\nsamples = 127\nvalue = [111, 16]"] ;
455 -> 456 ;
457 [label="X[57] <= 0.5\ngini = 0.21\nsamples = 126\nvalue = [111, 15]"] ;
456 -> 457 ;
458 [label="X[6] <= 0.5\ngini = 0.181\nsamples = 119\nvalue = [107, 12]"] ;
457 -> 458 ;
459 [label="X[37] <= 0.5\ngini = 0.149\nsamples = 111\nvalue = [102, 9]"] ;
458 -> 459 ;
460 [label="X[79] <= 0.5\ngini = 0.112\nsamples = 101\nvalue = [95, 6]"] ;
459 -> 460 ;
461 [label="X[13] <= 0.5\ngini = 0.096\nsamples = 99\nvalue = [94, 5]"] ;
460 -> 461 ;
462 [label="X[40] <= 0.5\ngini = 0.079\nsamples = 97\nvalue = [93, 4]"] ;
461 -> 462 ;
463 [label="X[122] <= 0.5\ngini = 0.1\nsamples = 76\nvalue = [72, 4]"] ;
462 -> 463 ;
464 [label="X[147] <= 0.5\ngini = 0.119\nsamples = 63\nvalue = [59, 4]"] ;
463 -> 464 ;
465 [label="X[90] <= 0.5\ngini = 0.142\nsamples = 52\nvalue = [48, 4]"] ;
464 -> 465 ;
466 [label="X[115] <= 0.5\ngini = 0.162\nsamples = 45\nvalue = [41, 4]"] ;
465 -> 466 ;
467 [label="X[36] <= 0.5\ngini = 0.204\nsamples = 26\nvalue = [23, 3]"] ;
466 -> 467 ;
468 [label="X[46] <= 0.5\ngini = 0.236\nsamples = 22\nvalue = [19, 3]"] ;
467 -> 468 ;
469 [label="X[61] <= 0.5\ngini = 0.266\nsamples = 19\nvalue = [16, 3]"] ;
468 -> 469 ;
470 [label="X[74] <= 0.5\ngini = 0.305\nsamples = 16\nvalue = [13, 3]"] ;
469 -> 470 ;
471 [label="X[110] <= 0.5\ngini = 0.337\nsamples = 14\nvalue = [11, 3]"] ;
470 -> 471 ;
472 [label="X[99] <= 0.5\ngini = 0.355\nsamples = 13\nvalue = [10, 3]"] ;
471 -> 472 ;
473 [label="X[117] <= 0.5\ngini = 0.375\nsamples = 12\nvalue = [9, 3]"] ;
472 -> 473 ;
474 [label="X[44] <= 0.5\ngini = 0.397\nsamples = 11\nvalue = [8, 3]"] ;
473 -> 474 ;
475 [label="X[16] <= 0.5\ngini = 0.42\nsamples = 10\nvalue = [7, 3]"] ;
474 -> 475 ;
476 [label="X[19] <= 0.5\ngini = 0.444\nsamples = 9\nvalue = [6, 3]"] ;
475 -> 476 ;
477 [label="X[108] <= 0.5\ngini = 0.469\nsamples = 8\nvalue = [5, 3]"] ;
476 -> 477 ;
478 [label="X[32] <= 0.5\ngini = 0.49\nsamples = 7\nvalue = [4, 3]"] ;
477 -> 478 ;
479 [label="X[97] <= 0.5\ngini = 0.5\nsamples = 6\nvalue = [3, 3]"] ;
478 -> 479 ;
480 [label="X[93] <= 0.5\ngini = 0.48\nsamples = 5\nvalue = [2, 3]"] ;
479 -> 480 ;
481 [label="X[14] <= 0.5\ngini = 0.375\nsamples = 4\nvalue = [1, 3]"] ;
480 -> 481 ;
482 [label="gini = 0.0\nsamples = 3\nvalue = [0, 3]"] ;
481 -> 482 ;
483 [label="gini = 0.0\nsamples = 1\nvalue = [1, 0]"] ;
481 -> 483 ;
484 [label="gini = 0.0\nsamples = 1\nvalue = [1, 0]"] ;
480 -> 484 ;
485 [label="gini = 0.0\nsamples = 1\nvalue = [1, 0]"] ;
479 -> 485 ;
486 [label="gini = 0.0\nsamples = 1\nvalue = [1, 0]"] ;
478 -> 486 ;
487 [label="gini = 0.0\nsamples = 1\nvalue = [1, 0]"] ;
477 -> 487 ;
488 [label="gini = 0.0\nsamples = 1\nvalue = [1, 0]"] ;
476 -> 488 ;
489 [label="gini = 0.0\nsamples = 1\nvalue = [1, 0]"] ;
475 -> 489 ;
490 [label="gini = 0.0\nsamples = 1\nvalue = [1, 0]"] ;
474 -> 490 ;
491 [label="gini = 0.0\nsamples = 1\nvalue = [1, 0]"] ;
473 -> 491 ;
492 [label="gini = 0.0\nsamples = 1\nvalue = [1, 0]"] ;
472 -> 492 ;
493 [label="gini = 0.0\nsamples = 1\nvalue = [1, 0]"] ;
471 -> 493 ;
494 [label="gini = 0.0\nsamples = 2\nvalue = [2, 0]"] ;
470 -> 494 ;
495 [label="gini = 0.0\nsamples = 3\nvalue = [3, 0]"] ;
469 -> 495 ;
496 [label="gini = 0.0\nsamples = 3\nvalue = [3, 0]"] ;
468 -> 496 ;
497 [label="gini = 0.0\nsamples = 4\nvalue = [4, 0]"] ;
467 -> 497 ;
498 [label="gini = 0.1\nsamples = 19\nvalue = [18, 1]"] ;
466 -> 498 ;
499 [label="gini = 0.0\nsamples = 7\nvalue = [7, 0]"] ;
465 -> 499 ;
500 [label="gini = 0.0\nsamples = 11\nvalue = [11, 0]"] ;
464 -> 500 ;
501 [label="gini = 0.0\nsamples = 13\nvalue = [13, 0]"] ;
463 -> 501 ;
502 [label="gini = 0.0\nsamples = 21\nvalue = [21, 0]"] ;
462 -> 502 ;
503 [label="gini = 0.5\nsamples = 2\nvalue = [1, 1]"] ;
461 -> 503 ;
504 [label="X[147] <= 0.5\ngini = 0.5\nsamples = 2\nvalue = [1, 1]"] ;
460 -> 504 ;
505 [label="gini = 0.0\nsamples = 1\nvalue = [1, 0]"] ;
504 -> 505 ;
506 [label="gini = 0.0\nsamples = 1\nvalue = [0, 1]"] ;
504 -> 506 ;
507 [label="X[147] <= 0.5\ngini = 0.42\nsamples = 10\nvalue = [7, 3]"] ;
459 -> 507 ;
508 [label="gini = 0.469\nsamples = 8\nvalue = [5, 3]"] ;
507 -> 508 ;
509 [label="gini = 0.0\nsamples = 2\nvalue = [2, 0]"] ;
507 -> 509 ;
510 [label="X[147] <= 0.5\ngini = 0.469\nsamples = 8\nvalue = [5, 3]"] ;
458 -> 510 ;
511 [label="gini = 0.48\nsamples = 5\nvalue = [3, 2]"] ;
510 -> 511 ;
512 [label="gini = 0.444\nsamples = 3\nvalue = [2, 1]"] ;
510 -> 512 ;
513 [label="X[147] <= 0.5\ngini = 0.49\nsamples = 7\nvalue = [4, 3]"] ;
457 -> 513 ;
514 [label="gini = 0.32\nsamples = 5\nvalue = [4, 1]"] ;
513 -> 514 ;
515 [label="gini = 0.0\nsamples = 2\nvalue = [0, 2]"] ;
513 -> 515 ;
516 [label="gini = 0.0\nsamples = 1\nvalue = [0, 1]"] ;
456 -> 516 ;
517 [label="gini = 0.0\nsamples = 1\nvalue = [0, 1]"] ;
455 -> 517 ;
518 [label="gini = 0.0\nsamples = 1\nvalue = [0, 1]"] ;
454 -> 518 ;
519 [label="gini = 0.0\nsamples = 1\nvalue = [0, 1]"] ;
453 -> 519 ;
520 [label="gini = 0.0\nsamples = 2\nvalue = [0, 2]"] ;
452 -> 520 ;
521 [label="gini = 0.0\nsamples = 2\nvalue = [0, 2]"] ;
451 -> 521 ;
522 [label="gini = 0.0\nsamples = 2\nvalue = [0, 2]"] ;
450 -> 522 ;
523 [label="gini = 0.0\nsamples = 2\nvalue = [0, 2]"] ;
449 -> 523 ;
524 [label="gini = 0.0\nsamples = 11\nvalue = [0, 11]"] ;
448 -> 524 ;
525 [label="X[78] <= 0.5\ngini = 0.18\nsamples = 20\nvalue = [2, 18]"] ;
447 -> 525 ;
526 [label="X[40] <= 0.5\ngini = 0.1\nsamples = 19\nvalue = [1, 18]"] ;
525 -> 526 ;
527 [label="gini = 0.0\nsamples = 18\nvalue = [0, 18]"] ;
526 -> 527 ;
528 [label="gini = 0.0\nsamples = 1\nvalue = [1, 0]"] ;
526 -> 528 ;
529 [label="gini = 0.0\nsamples = 1\nvalue = [1, 0]"] ;
525 -> 529 ;
530 [label="X[128] <= 0.5\ngini = 0.479\nsamples = 380\nvalue = [229, 151]"] ;
6 -> 530 ;
531 [label="X[137] <= 0.5\ngini = 0.458\nsamples = 321\nvalue = [207, 114]"] ;
530 -> 531 ;
532 [label="X[147] <= 0.5\ngini = 0.428\nsamples = 219\nvalue = [151, 68]"] ;
531 -> 532 ;
533 [label="X[135] <= 0.5\ngini = 0.456\nsamples = 176\nvalue = [114, 62]"] ;
532 -> 533 ;
534 [label="X[136] <= 0.5\ngini = 0.472\nsamples = 155\nvalue = [96, 59]"] ;
533 -> 534 ;
535 [label="X[139] <= 0.5\ngini = 0.478\nsamples = 149\nvalue = [90, 59]"] ;
534 -> 535 ;
536 [label="X[129] <= 0.5\ngini = 0.488\nsamples = 133\nvalue = [77, 56]"] ;
535 -> 536 ;
537 [label="X[127] <= 0.5\ngini = 0.497\nsamples = 106\nvalue = [57, 49]"] ;
536 -> 537 ;
538 [label="X[134] <= 0.5\ngini = 0.495\nsamples = 71\nvalue = [32, 39]"] ;
537 -> 538 ;
539 [label="X[146] <= 0.5\ngini = 0.463\nsamples = 44\nvalue = [16, 28]"] ;
538 -> 539 ;
540 [label="X[132] <= 0.5\ngini = 0.355\nsamples = 26\nvalue = [6, 20]"] ;
539 -> 540 ;
541 [label="X[144] <= 0.5\ngini = 0.133\nsamples = 14\nvalue = [1, 13]"] ;
540 -> 541 ;
542 [label="gini = 0.0\nsamples = 13\nvalue = [0, 13]"] ;
541 -> 542 ;
543 [label="gini = 0.0\nsamples = 1\nvalue = [1, 0]"] ;
541 -> 543 ;
544 [label="gini = 0.486\nsamples = 12\nvalue = [5, 7]"] ;
540 -> 544 ;
545 [label="gini = 0.494\nsamples = 18\nvalue = [10, 8]"] ;
539 -> 545 ;
546 [label="gini = 0.483\nsamples = 27\nvalue = [16, 11]"] ;
538 -> 546 ;
547 [label="gini = 0.408\nsamples = 35\nvalue = [25, 10]"] ;
537 -> 547 ;
548 [label="gini = 0.384\nsamples = 27\nvalue = [20, 7]"] ;
536 -> 548 ;
549 [label="gini = 0.305\nsamples = 16\nvalue = [13, 3]"] ;
535 -> 549 ;
550 [label="gini = 0.0\nsamples = 6\nvalue = [6, 0]"] ;
534 -> 550 ;
551 [label="gini = 0.245\nsamples = 21\nvalue = [18, 3]"] ;
533 -> 551 ;
552 [label="X[136] <= 0.5\ngini = 0.24\nsamples = 43\nvalue = [37, 6]"] ;
532 -> 552 ;
553 [label="X[135] <= 0.5\ngini = 0.21\nsamples = 42\nvalue = [37, 5]"] ;
552 -> 553 ;
554 [label="X[134] <= 0.5\ngini = 0.149\nsamples = 37\nvalue = [34, 3]"] ;
553 -> 554 ;
555 [label="X[139] <= 0.5\ngini = 0.064\nsamples = 30\nvalue = [29, 1]"] ;
554 -> 555 ;
556 [label="gini = 0.0\nsamples = 27\nvalue = [27, 0]"] ;
555 -> 556 ;
557 [label="gini = 0.444\nsamples = 3\nvalue = [2, 1]"] ;
555 -> 557 ;
558 [label="gini = 0.408\nsamples = 7\nvalue = [5, 2]"] ;
554 -> 558 ;
559 [label="gini = 0.48\nsamples = 5\nvalue = [3, 2]"] ;
553 -> 559 ;
560 [label="gini = 0.0\nsamples = 1\nvalue = [0, 1]"] ;
552 -> 560 ;
561 [label="X[147] <= 0.5\ngini = 0.495\nsamples = 102\nvalue = [56, 46]"] ;
531 -> 561 ;
562 [label="gini = 0.495\nsamples = 87\nvalue = [48, 39]"] ;
561 -> 562 ;
563 [label="gini = 0.498\nsamples = 15\nvalue = [8, 7]"] ;
561 -> 563 ;
564 [label="X[147] <= 0.5\ngini = 0.468\nsamples = 59\nvalue = [22, 37]"] ;
530 -> 564 ;
565 [label="X[0] <= 0.5\ngini = 0.452\nsamples = 55\nvalue = [19, 36]"] ;
564 -> 565 ;
566 [label="gini = 0.46\nsamples = 53\nvalue = [19, 34]"] ;
565 -> 566 ;
567 [label="gini = 0.0\nsamples = 2\nvalue = [0, 2]"] ;
565 -> 567 ;
568 [label="gini = 0.375\nsamples = 4\nvalue = [3, 1]"] ;
564 -> 568 ;
569 [label="gini = 0.0\nsamples = 169\nvalue = [169, 0]"] ;
5 -> 569 ;
570 [label="X[0] <= 0.5\ngini = 0.186\nsamples = 308\nvalue = [276, 32]"] ;
4 -> 570 ;
571 [label="X[57] <= 0.5\ngini = 0.147\nsamples = 300\nvalue = [276, 24]"] ;
570 -> 571 ;
572 [label="X[46] <= 0.5\ngini = 0.137\nsamples = 298\nvalue = [276, 22]"] ;
571 -> 572 ;
573 [label="X[37] <= 0.5\ngini = 0.126\nsamples = 296\nvalue = [276, 20]"] ;
572 -> 573 ;
574 [label="X[76] <= 0.5\ngini = 0.11\nsamples = 290\nvalue = [273, 17]"] ;
573 -> 574 ;
575 [label="X[52] <= 0.5\ngini = 0.105\nsamples = 289\nvalue = [273, 16]"] ;
574 -> 575 ;
576 [label="X[113] <= 0.5\ngini = 0.099\nsamples = 288\nvalue = [273, 15]"] ;
575 -> 576 ;
577 [label="X[49] <= 0.5\ngini = 0.093\nsamples = 287\nvalue = [273, 14]"] ;
576 -> 577 ;
578 [label="X[122] <= 0.5\ngini = 0.077\nsamples = 276\nvalue = [265, 11]"] ;
577 -> 578 ;
579 [label="X[61] <= 0.5\ngini = 0.115\nsamples = 164\nvalue = [154, 10]"] ;
578 -> 579 ;
580 [label="X[40] <= 0.5\ngini = 0.177\nsamples = 51\nvalue = [46, 5]"] ;
579 -> 580 ;
581 [label="X[147] <= 0.5\ngini = 0.224\nsamples = 39\nvalue = [34, 5]"] ;
580 -> 581 ;
582 [label="X[78] <= 0.5\ngini = 0.271\nsamples = 31\nvalue = [26, 5]"] ;
581 -> 582 ;
583 [label="X[12] <= 0.5\ngini = 0.444\nsamples = 9\nvalue = [6, 3]"] ;
582 -> 583 ;
584 [label="X[83] <= 0.5\ngini = 0.49\nsamples = 7\nvalue = [4, 3]"] ;
583 -> 584 ;
585 [label="X[62] <= 0.5\ngini = 0.5\nsamples = 6\nvalue = [3, 3]"] ;
584 -> 585 ;
586 [label="X[36] <= 0.5\ngini = 0.48\nsamples = 5\nvalue = [2, 3]"] ;
585 -> 586 ;
587 [label="X[115] <= 0.5\ngini = 0.375\nsamples = 4\nvalue = [1, 3]"] ;
586 -> 587 ;
588 [label="gini = 0.0\nsamples = 3\nvalue = [0, 3]"] ;
587 -> 588 ;
589 [label="gini = 0.0\nsamples = 1\nvalue = [1, 0]"] ;
587 -> 589 ;
590 [label="gini = 0.0\nsamples = 1\nvalue = [1, 0]"] ;
586 -> 590 ;
591 [label="gini = 0.0\nsamples = 1\nvalue = [1, 0]"] ;
585 -> 591 ;
592 [label="gini = 0.0\nsamples = 1\nvalue = [1, 0]"] ;
584 -> 592 ;
593 [label="gini = 0.0\nsamples = 2\nvalue = [2, 0]"] ;
583 -> 593 ;
594 [label="gini = 0.165\nsamples = 22\nvalue = [20, 2]"] ;
582 -> 594 ;
595 [label="gini = 0.0\nsamples = 8\nvalue = [8, 0]"] ;
581 -> 595 ;
596 [label="gini = 0.0\nsamples = 12\nvalue = [12, 0]"] ;
580 -> 596 ;
597 [label="X[147] <= 0.5\ngini = 0.085\nsamples = 113\nvalue = [108, 5]"] ;
579 -> 597 ;
598 [label="gini = 0.079\nsamples = 97\nvalue = [93, 4]"] ;
597 -> 598 ;
599 [label="gini = 0.117\nsamples = 16\nvalue = [15, 1]"] ;
597 -> 599 ;
600 [label="X[147] <= 0.5\ngini = 0.018\nsamples = 112\nvalue = [111, 1]"] ;
578 -> 600 ;
601 [label="gini = 0.022\nsamples = 89\nvalue = [88, 1]"] ;
600 -> 601 ;
602 [label="gini = 0.0\nsamples = 23\nvalue = [23, 0]"] ;
600 -> 602 ;
603 [label="gini = 0.397\nsamples = 11\nvalue = [8, 3]"] ;
577 -> 603 ;
604 [label="gini = 0.0\nsamples = 1\nvalue = [0, 1]"] ;
576 -> 604 ;
605 [label="gini = 0.0\nsamples = 1\nvalue = [0, 1]"] ;
575 -> 605 ;
606 [label="gini = 0.0\nsamples = 1\nvalue = [0, 1]"] ;
574 -> 606 ;
607 [label="gini = 0.5\nsamples = 6\nvalue = [3, 3]"] ;
573 -> 607 ;
608 [label="gini = 0.0\nsamples = 2\nvalue = [0, 2]"] ;
572 -> 608 ;
609 [label="gini = 0.0\nsamples = 2\nvalue = [0, 2]"] ;
571 -> 609 ;
610 [label="gini = 0.0\nsamples = 8\nvalue = [0, 8]"] ;
570 -> 610 ;
611 [label="X[0] <= 0.5\ngini = 0.284\nsamples = 443\nvalue = [367, 76]"] ;
3 -> 611 ;
612 [label="X[76] <= 0.5\ngini = 0.228\nsamples = 420\nvalue = [365, 55]"] ;
611 -> 612 ;
613 [label="X[52] <= 0.5\ngini = 0.195\nsamples = 410\nvalue = [365, 45]"] ;
612 -> 613 ;
614 [label="X[55] <= 0.5\ngini = 0.178\nsamples = 405\nvalue = [365, 40]"] ;
613 -> 614 ;
615 [label="X[82] <= 0.5\ngini = 0.171\nsamples = 403\nvalue = [365, 38]"] ;
614 -> 615 ;
616 [label="X[17] <= 0.5\ngini = 0.167\nsamples = 402\nvalue = [365, 37]"] ;
615 -> 616 ;
617 [label="X[53] <= 0.5\ngini = 0.163\nsamples = 401\nvalue = [365, 36]"] ;
616 -> 617 ;
618 [label="X[56] <= 0.5\ngini = 0.16\nsamples = 400\nvalue = [365, 35]"] ;
617 -> 618 ;
619 [label="X[100] <= 0.5\ngini = 0.156\nsamples = 399\nvalue = [365, 34]"] ;
618 -> 619 ;
620 [label="X[34] <= 0.5\ngini = 0.152\nsamples = 398\nvalue = [365, 33]"] ;
619 -> 620 ;
621 [label="X[37] <= 0.5\ngini = 0.145\nsamples = 394\nvalue = [363, 31]"] ;
620 -> 621 ;
622 [label="X[57] <= 0.5\ngini = 0.133\nsamples = 377\nvalue = [350, 27]"] ;
621 -> 622 ;
623 [label="X[61] <= 0.5\ngini = 0.126\nsamples = 371\nvalue = [346, 25]"] ;
622 -> 623 ;
624 [label="X[32] <= 0.5\ngini = 0.122\nsamples = 369\nvalue = [345, 24]"] ;
623 -> 624 ;
625 [label="X[6] <= 0.5\ngini = 0.117\nsamples = 367\nvalue = [344, 23]"] ;
624 -> 625 ;
626 [label="X[49] <= 0.5\ngini = 0.11\nsamples = 358\nvalue = [337, 21]"] ;
625 -> 626 ;
627 [label="X[40] <= 0.5\ngini = 0.076\nsamples = 226\nvalue = [217, 9]"] ;
626 -> 627 ;
628 [label="X[110] <= 0.5\ngini = 0.088\nsamples = 194\nvalue = [185, 9]"] ;
627 -> 628 ;
629 [label="X[115] <= 0.5\ngini = 0.103\nsamples = 165\nvalue = [156, 9]"] ;
628 -> 629 ;
630 [label="X[122] <= 0.5\ngini = 0.116\nsamples = 145\nvalue = [136, 9]"] ;
629 -> 630 ;
631 [label="X[46] <= 0.5\ngini = 0.131\nsamples = 128\nvalue = [119, 9]"] ;
630 -> 631 ;
632 [label="X[90] <= 0.5\ngini = 0.149\nsamples = 111\nvalue = [102, 9]"] ;
631 -> 632 ;
633 [label="X[104] <= 0.5\ngini = 0.159\nsamples = 103\nvalue = [94, 9]"] ;
632 -> 633 ;
634 [label="X[96] <= 0.5\ngini = 0.17\nsamples = 96\nvalue = [87, 9]"] ;
633 -> 634 ;
635 [label="X[44] <= 0.5\ngini = 0.182\nsamples = 89\nvalue = [80, 9]"] ;
634 -> 635 ;
636 [label="X[93] <= 0.5\ngini = 0.193\nsamples = 83\nvalue = [74, 9]"] ;
635 -> 636 ;
637 [label="X[14] <= 0.5\ngini = 0.204\nsamples = 78\nvalue = [69, 9]"] ;
636 -> 637 ;
638 [label="X[97] <= 0.5\ngini = 0.214\nsamples = 74\nvalue = [65, 9]"] ;
637 -> 638 ;
639 [label="X[25] <= 0.5\ngini = 0.221\nsamples = 71\nvalue = [62, 9]"] ;
638 -> 639 ;
640 [label="X[62] <= 0.5\ngini = 0.23\nsamples = 68\nvalue = [59, 9]"] ;
639 -> 640 ;
641 [label="X[118] <= 0.5\ngini = 0.239\nsamples = 65\nvalue = [56, 9]"] ;
640 -> 641 ;
642 [label="X[78] <= 0.5\ngini = 0.248\nsamples = 62\nvalue = [53, 9]"] ;
641 -> 642 ;
643 [label="X[107] <= 0.5\ngini = 0.259\nsamples = 59\nvalue = [50, 9]"] ;
642 -> 643 ;
644 [label="X[74] <= 0.5\ngini = 0.27\nsamples = 56\nvalue = [47, 9]"] ;
643 -> 644 ;
645 [label="X[18] <= 0.5\ngini = 0.278\nsamples = 54\nvalue = [45, 9]"] ;
644 -> 645 ;
646 [label="X[105] <= 0.5\ngini = 0.286\nsamples = 52\nvalue = [43, 9]"] ;
645 -> 646 ;
647 [label="X[16] <= 0.5\ngini = 0.295\nsamples = 50\nvalue = [41, 9]"] ;
646 -> 647 ;
648 [label="X[13] <= 0.5\ngini = 0.305\nsamples = 48\nvalue = [39, 9]"] ;
647 -> 648 ;
649 [label="X[92] <= 0.5\ngini = 0.315\nsamples = 46\nvalue = [37, 9]"] ;
648 -> 649 ;
650 [label="X[80] <= 0.5\ngini = 0.325\nsamples = 44\nvalue = [35, 9]"] ;
649 -> 650 ;
651 [label="X[19] <= 0.5\ngini = 0.353\nsamples = 35\nvalue = [27, 8]"] ;
650 -> 651 ;
652 [label="X[12] <= 0.5\ngini = 0.367\nsamples = 33\nvalue = [25, 8]"] ;
651 -> 652 ;
653 [label="X[147] <= 0.5\ngini = 0.383\nsamples = 31\nvalue = [23, 8]"] ;
652 -> 653 ;
654 [label="X[22] <= 0.5\ngini = 0.366\nsamples = 29\nvalue = [22, 7]"] ;
653 -> 654 ;
655 [label="X[112] <= 0.5\ngini = 0.375\nsamples = 28\nvalue = [21, 7]"] ;
654 -> 655 ;
656 [label="X[85] <= 0.5\ngini = 0.384\nsamples = 27\nvalue = [20, 7]"] ;
655 -> 656 ;
657 [label="X[24] <= 0.5\ngini = 0.393\nsamples = 26\nvalue = [19, 7]"] ;
656 -> 657 ;
658 [label="X[36] <= 0.5\ngini = 0.403\nsamples = 25\nvalue = [18, 7]"] ;
657 -> 658 ;
659 [label="X[65] <= 0.5\ngini = 0.413\nsamples = 24\nvalue = [17, 7]"] ;
658 -> 659 ;
660 [label="X[59] <= 0.5\ngini = 0.423\nsamples = 23\nvalue = [16, 7]"] ;
659 -> 660 ;
661 [label="X[47] <= 0.5\ngini = 0.434\nsamples = 22\nvalue = [15, 7]"] ;
660 -> 661 ;
662 [label="X[60] <= 0.5\ngini = 0.444\nsamples = 21\nvalue = [14, 7]"] ;
661 -> 662 ;
663 [label="X[114] <= 0.5\ngini = 0.455\nsamples = 20\nvalue = [13, 7]"] ;
662 -> 663 ;
664 [label="X[119] <= 0.5\ngini = 0.465\nsamples = 19\nvalue = [12, 7]"] ;
663 -> 664 ;
665 [label="X[108] <= 0.5\ngini = 0.475\nsamples = 18\nvalue = [11, 7]"] ;
664 -> 665 ;
666 [label="X[8] <= 0.5\ngini = 0.484\nsamples = 17\nvalue = [10, 7]"] ;
665 -> 666 ;
667 [label="X[27] <= 0.5\ngini = 0.492\nsamples = 16\nvalue = [9, 7]"] ;
666 -> 667 ;
668 [label="X[21] <= 0.5\ngini = 0.498\nsamples = 15\nvalue = [8, 7]"] ;
667 -> 668 ;
669 [label="X[94] <= 0.5\ngini = 0.5\nsamples = 14\nvalue = [7, 7]"] ;
668 -> 669 ;
670 [label="X[11] <= 0.5\ngini = 0.497\nsamples = 13\nvalue = [6, 7]"] ;
669 -> 670 ;
671 [label="X[98] <= 0.5\ngini = 0.486\nsamples = 12\nvalue = [5, 7]"] ;
670 -> 671 ;
672 [label="X[102] <= 0.5\ngini = 0.463\nsamples = 11\nvalue = [4, 7]"] ;
671 -> 672 ;
673 [label="X[63] <= 0.5\ngini = 0.42\nsamples = 10\nvalue = [3, 7]"] ;
672 -> 673 ;
674 [label="X[79] <= 0.5\ngini = 0.346\nsamples = 9\nvalue = [2, 7]"] ;
673 -> 674 ;
675 [label="X[103] <= 0.5\ngini = 0.219\nsamples = 8\nvalue = [1, 7]"] ;
674 -> 675 ;
676 [label="gini = 0.0\nsamples = 7\nvalue = [0, 7]"] ;
675 -> 676 ;
677 [label="gini = 0.0\nsamples = 1\nvalue = [1, 0]"] ;
675 -> 677 ;
678 [label="gini = 0.0\nsamples = 1\nvalue = [1, 0]"] ;
674 -> 678 ;
679 [label="gini = 0.0\nsamples = 1\nvalue = [1, 0]"] ;
673 -> 679 ;
680 [label="gini = 0.0\nsamples = 1\nvalue = [1, 0]"] ;
672 -> 680 ;
681 [label="gini = 0.0\nsamples = 1\nvalue = [1, 0]"] ;
671 -> 681 ;
682 [label="gini = 0.0\nsamples = 1\nvalue = [1, 0]"] ;
670 -> 682 ;
683 [label="gini = 0.0\nsamples = 1\nvalue = [1, 0]"] ;
669 -> 683 ;
684 [label="gini = 0.0\nsamples = 1\nvalue = [1, 0]"] ;
668 -> 684 ;
685 [label="gini = 0.0\nsamples = 1\nvalue = [1, 0]"] ;
667 -> 685 ;
686 [label="gini = 0.0\nsamples = 1\nvalue = [1, 0]"] ;
666 -> 686 ;
687 [label="gini = 0.0\nsamples = 1\nvalue = [1, 0]"] ;
665 -> 687 ;
688 [label="gini = 0.0\nsamples = 1\nvalue = [1, 0]"] ;
664 -> 688 ;
689 [label="gini = 0.0\nsamples = 1\nvalue = [1, 0]"] ;
663 -> 689 ;
690 [label="gini = 0.0\nsamples = 1\nvalue = [1, 0]"] ;
662 -> 690 ;
691 [label="gini = 0.0\nsamples = 1\nvalue = [1, 0]"] ;
661 -> 691 ;
692 [label="gini = 0.0\nsamples = 1\nvalue = [1, 0]"] ;
660 -> 692 ;
693 [label="gini = 0.0\nsamples = 1\nvalue = [1, 0]"] ;
659 -> 693 ;
694 [label="gini = 0.0\nsamples = 1\nvalue = [1, 0]"] ;
658 -> 694 ;
695 [label="gini = 0.0\nsamples = 1\nvalue = [1, 0]"] ;
657 -> 695 ;
696 [label="gini = 0.0\nsamples = 1\nvalue = [1, 0]"] ;
656 -> 696 ;
697 [label="gini = 0.0\nsamples = 1\nvalue = [1, 0]"] ;
655 -> 697 ;
698 [label="gini = 0.0\nsamples = 1\nvalue = [1, 0]"] ;
654 -> 698 ;
699 [label="X[95] <= 0.5\ngini = 0.5\nsamples = 2\nvalue = [1, 1]"] ;
653 -> 699 ;
700 [label="gini = 0.0\nsamples = 1\nvalue = [0, 1]"] ;
699 -> 700 ;
701 [label="gini = 0.0\nsamples = 1\nvalue = [1, 0]"] ;
699 -> 701 ;
702 [label="gini = 0.0\nsamples = 2\nvalue = [2, 0]"] ;
652 -> 702 ;
703 [label="gini = 0.0\nsamples = 2\nvalue = [2, 0]"] ;
651 -> 703 ;
704 [label="X[147] <= 0.5\ngini = 0.198\nsamples = 9\nvalue = [8, 1]"] ;
650 -> 704 ;
705 [label="gini = 0.219\nsamples = 8\nvalue = [7, 1]"] ;
704 -> 705 ;
706 [label="gini = 0.0\nsamples = 1\nvalue = [1, 0]"] ;
704 -> 706 ;
707 [label="gini = 0.0\nsamples = 2\nvalue = [2, 0]"] ;
649 -> 707 ;
708 [label="gini = 0.0\nsamples = 2\nvalue = [2, 0]"] ;
648 -> 708 ;
709 [label="gini = 0.0\nsamples = 2\nvalue = [2, 0]"] ;
647 -> 709 ;
710 [label="gini = 0.0\nsamples = 2\nvalue = [2, 0]"] ;
646 -> 710 ;
711 [label="gini = 0.0\nsamples = 2\nvalue = [2, 0]"] ;
645 -> 711 ;
712 [label="gini = 0.0\nsamples = 2\nvalue = [2, 0]"] ;
644 -> 712 ;
713 [label="gini = 0.0\nsamples = 3\nvalue = [3, 0]"] ;
643 -> 713 ;
714 [label="gini = 0.0\nsamples = 3\nvalue = [3, 0]"] ;
642 -> 714 ;
715 [label="gini = 0.0\nsamples = 3\nvalue = [3, 0]"] ;
641 -> 715 ;
716 [label="gini = 0.0\nsamples = 3\nvalue = [3, 0]"] ;
640 -> 716 ;
717 [label="gini = 0.0\nsamples = 3\nvalue = [3, 0]"] ;
639 -> 717 ;
718 [label="gini = 0.0\nsamples = 3\nvalue = [3, 0]"] ;
638 -> 718 ;
719 [label="gini = 0.0\nsamples = 4\nvalue = [4, 0]"] ;
637 -> 719 ;
720 [label="gini = 0.0\nsamples = 5\nvalue = [5, 0]"] ;
636 -> 720 ;
721 [label="gini = 0.0\nsamples = 6\nvalue = [6, 0]"] ;
635 -> 721 ;
722 [label="gini = 0.0\nsamples = 7\nvalue = [7, 0]"] ;
634 -> 722 ;
723 [label="gini = 0.0\nsamples = 7\nvalue = [7, 0]"] ;
633 -> 723 ;
724 [label="gini = 0.0\nsamples = 8\nvalue = [8, 0]"] ;
632 -> 724 ;
725 [label="gini = 0.0\nsamples = 17\nvalue = [17, 0]"] ;
631 -> 725 ;
726 [label="gini = 0.0\nsamples = 17\nvalue = [17, 0]"] ;
630 -> 726 ;
727 [label="gini = 0.0\nsamples = 20\nvalue = [20, 0]"] ;
629 -> 727 ;
728 [label="gini = 0.0\nsamples = 29\nvalue = [29, 0]"] ;
628 -> 728 ;
729 [label="gini = 0.0\nsamples = 32\nvalue = [32, 0]"] ;
627 -> 729 ;
730 [label="X[147] <= 0.5\ngini = 0.165\nsamples = 132\nvalue = [120, 12]"] ;
626 -> 730 ;
731 [label="gini = 0.204\nsamples = 104\nvalue = [92, 12]"] ;
730 -> 731 ;
732 [label="gini = 0.0\nsamples = 28\nvalue = [28, 0]"] ;
730 -> 732 ;
733 [label="X[147] <= 0.5\ngini = 0.346\nsamples = 9\nvalue = [7, 2]"] ;
625 -> 733 ;
734 [label="gini = 0.408\nsamples = 7\nvalue = [5, 2]"] ;
733 -> 734 ;
735 [label="gini = 0.0\nsamples = 2\nvalue = [2, 0]"] ;
733 -> 735 ;
736 [label="gini = 0.5\nsamples = 2\nvalue = [1, 1]"] ;
624 -> 736 ;
737 [label="gini = 0.5\nsamples = 2\nvalue = [1, 1]"] ;
623 -> 737 ;
738 [label="X[147] <= 0.5\ngini = 0.444\nsamples = 6\nvalue = [4, 2]"] ;
622 -> 738 ;
739 [label="gini = 0.48\nsamples = 5\nvalue = [3, 2]"] ;
738 -> 739 ;
740 [label="gini = 0.0\nsamples = 1\nvalue = [1, 0]"] ;
738 -> 740 ;
741 [label="X[147] <= 0.5\ngini = 0.36\nsamples = 17\nvalue = [13, 4]"] ;
621 -> 741 ;
742 [label="gini = 0.278\nsamples = 12\nvalue = [10, 2]"] ;
741 -> 742 ;
743 [label="gini = 0.48\nsamples = 5\nvalue = [3, 2]"] ;
741 -> 743 ;
744 [label="gini = 0.5\nsamples = 4\nvalue = [2, 2]"] ;
620 -> 744 ;
745 [label="gini = 0.0\nsamples = 1\nvalue = [0, 1]"] ;
619 -> 745 ;
746 [label="gini = 0.0\nsamples = 1\nvalue = [0, 1]"] ;
618 -> 746 ;
747 [label="gini = 0.0\nsamples = 1\nvalue = [0, 1]"] ;
617 -> 747 ;
748 [label="gini = 0.0\nsamples = 1\nvalue = [0, 1]"] ;
616 -> 748 ;
749 [label="gini = 0.0\nsamples = 1\nvalue = [0, 1]"] ;
615 -> 749 ;
750 [label="gini = 0.0\nsamples = 2\nvalue = [0, 2]"] ;
614 -> 750 ;
751 [label="gini = 0.0\nsamples = 5\nvalue = [0, 5]"] ;
613 -> 751 ;
752 [label="gini = 0.0\nsamples = 10\nvalue = [0, 10]"] ;
612 -> 752 ;
753 [label="X[62] <= 0.5\ngini = 0.159\nsamples = 23\nvalue = [2, 21]"] ;
611 -> 753 ;
754 [label="X[40] <= 0.5\ngini = 0.087\nsamples = 22\nvalue = [1, 21]"] ;
753 -> 754 ;
755 [label="gini = 0.0\nsamples = 21\nvalue = [0, 21]"] ;
754 -> 755 ;
756 [label="gini = 0.0\nsamples = 1\nvalue = [1, 0]"] ;
754 -> 756 ;
757 [label="gini = 0.0\nsamples = 1\nvalue = [1, 0]"] ;
753 -> 757 ;
758 [label="X[76] <= 0.5\ngini = 0.125\nsamples = 567\nvalue = [529, 38]"] ;
2 -> 758 ;
759 [label="X[0] <= 0.5\ngini = 0.108\nsamples = 561\nvalue = [529, 32]"] ;
758 -> 759 ;
760 [label="X[49] <= 0.5\ngini = 0.089\nsamples = 555\nvalue = [529, 26]"] ;
759 -> 760 ;
761 [label="X[52] <= 0.5\ngini = 0.064\nsamples = 542\nvalue = [524, 18]"] ;
760 -> 761 ;
762 [label="X[37] <= 0.5\ngini = 0.058\nsamples = 540\nvalue = [524, 16]"] ;
761 -> 762 ;
763 [label="X[64] <= 0.5\ngini = 0.047\nsamples = 535\nvalue = [522, 13]"] ;
762 -> 763 ;
764 [label="X[120] <= 0.5\ngini = 0.044\nsamples = 534\nvalue = [522, 12]"] ;
763 -> 764 ;
765 [label="X[6] <= 0.5\ngini = 0.04\nsamples = 533\nvalue = [522, 11]"] ;
764 -> 765 ;
766 [label="X[80] <= 0.5\ngini = 0.033\nsamples = 529\nvalue = [520, 9]"] ;
765 -> 766 ;
767 [label="X[78] <= 0.5\ngini = 0.03\nsamples = 527\nvalue = [519, 8]"] ;
766 -> 767 ;
768 [label="X[147] <= 0.5\ngini = 0.073\nsamples = 212\nvalue = [204, 8]"] ;
767 -> 768 ;
769 [label="X[40] <= 0.5\ngini = 0.085\nsamples = 180\nvalue = [172, 8]"] ;
768 -> 769 ;
770 [label="X[61] <= 0.5\ngini = 0.091\nsamples = 167\nvalue = [159, 8]"] ;
769 -> 770 ;
771 [label="X[122] <= 0.5\ngini = 0.124\nsamples = 75\nvalue = [70, 5]"] ;
770 -> 771 ;
772 [label="X[46] <= 0.5\ngini = 0.18\nsamples = 20\nvalue = [18, 2]"] ;
771 -> 772 ;
773 [label="X[102] <= 0.5\ngini = 0.219\nsamples = 16\nvalue = [14, 2]"] ;
772 -> 773 ;
774 [label="X[115] <= 0.5\ngini = 0.278\nsamples = 12\nvalue = [10, 2]"] ;
773 -> 774 ;
775 [label="X[36] <= 0.5\ngini = 0.346\nsamples = 9\nvalue = [7, 2]"] ;
774 -> 775 ;
776 [label="X[83] <= 0.5\ngini = 0.375\nsamples = 8\nvalue = [6, 2]"] ;
775 -> 776 ;
777 [label="X[104] <= 0.5\ngini = 0.408\nsamples = 7\nvalue = [5, 2]"] ;
776 -> 777 ;
778 [label="X[7] <= 0.5\ngini = 0.444\nsamples = 6\nvalue = [4, 2]"] ;
777 -> 778 ;
779 [label="X[92] <= 0.5\ngini = 0.48\nsamples = 5\nvalue = [3, 2]"] ;
778 -> 779 ;
780 [label="X[110] <= 0.5\ngini = 0.5\nsamples = 4\nvalue = [2, 2]"] ;
779 -> 780 ;
781 [label="X[62] <= 0.5\ngini = 0.444\nsamples = 3\nvalue = [1, 2]"] ;
780 -> 781 ;
782 [label="gini = 0.0\nsamples = 2\nvalue = [0, 2]"] ;
781 -> 782 ;
783 [label="gini = 0.0\nsamples = 1\nvalue = [1, 0]"] ;
781 -> 783 ;
784 [label="gini = 0.0\nsamples = 1\nvalue = [1, 0]"] ;
780 -> 784 ;
785 [label="gini = 0.0\nsamples = 1\nvalue = [1, 0]"] ;
779 -> 785 ;
786 [label="gini = 0.0\nsamples = 1\nvalue = [1, 0]"] ;
778 -> 786 ;
787 [label="gini = 0.0\nsamples = 1\nvalue = [1, 0]"] ;
777 -> 787 ;
788 [label="gini = 0.0\nsamples = 1\nvalue = [1, 0]"] ;
776 -> 788 ;
789 [label="gini = 0.0\nsamples = 1\nvalue = [1, 0]"] ;
775 -> 789 ;
790 [label="gini = 0.0\nsamples = 3\nvalue = [3, 0]"] ;
774 -> 790 ;
791 [label="gini = 0.0\nsamples = 4\nvalue = [4, 0]"] ;
773 -> 791 ;
792 [label="gini = 0.0\nsamples = 4\nvalue = [4, 0]"] ;
772 -> 792 ;
793 [label="gini = 0.103\nsamples = 55\nvalue = [52, 3]"] ;
771 -> 793 ;
794 [label="gini = 0.063\nsamples = 92\nvalue = [89, 3]"] ;
770 -> 794 ;
795 [label="gini = 0.0\nsamples = 13\nvalue = [13, 0]"] ;
769 -> 795 ;
796 [label="gini = 0.0\nsamples = 32\nvalue = [32, 0]"] ;
768 -> 796 ;
797 [label="gini = 0.0\nsamples = 315\nvalue = [315, 0]"] ;
767 -> 797 ;
798 [label="X[147] <= 0.5\ngini = 0.5\nsamples = 2\nvalue = [1, 1]"] ;
766 -> 798 ;
799 [label="gini = 0.0\nsamples = 1\nvalue = [0, 1]"] ;
798 -> 799 ;
800 [label="gini = 0.0\nsamples = 1\nvalue = [1, 0]"] ;
798 -> 800 ;
801 [label="gini = 0.5\nsamples = 4\nvalue = [2, 2]"] ;
765 -> 801 ;
802 [label="gini = 0.0\nsamples = 1\nvalue = [0, 1]"] ;
764 -> 802 ;
803 [label="gini = 0.0\nsamples = 1\nvalue = [0, 1]"] ;
763 -> 803 ;
804 [label="gini = 0.48\nsamples = 5\nvalue = [2, 3]"] ;
762 -> 804 ;
805 [label="gini = 0.0\nsamples = 2\nvalue = [0, 2]"] ;
761 -> 805 ;
806 [label="X[147] <= 0.5\ngini = 0.473\nsamples = 13\nvalue = [5, 8]"] ;
760 -> 806 ;
807 [label="gini = 0.5\nsamples = 8\nvalue = [4, 4]"] ;
806 -> 807 ;
808 [label="gini = 0.32\nsamples = 5\nvalue = [1, 4]"] ;
806 -> 808 ;
809 [label="gini = 0.0\nsamples = 6\nvalue = [0, 6]"] ;
759 -> 809 ;
810 [label="gini = 0.0\nsamples = 6\nvalue = [0, 6]"] ;
758 -> 810 ;
811 [label="X[128] <= 0.5\ngini = 0.179\nsamples = 1054\nvalue = [949, 105]"] ;
1 -> 811 ;
812 [label="X[141] <= 0.5\ngini = 0.146\nsamples = 946\nvalue = [871, 75]"] ;
811 -> 812 ;
813 [label="X[146] <= 0.5\ngini = 0.143\nsamples = 944\nvalue = [871, 73]"] ;
812 -> 813 ;
814 [label="X[0] <= 0.5\ngini = 0.128\nsamples = 900\nvalue = [838, 62]"] ;
813 -> 814 ;
815 [label="X[145] <= 0.5\ngini = 0.123\nsamples = 895\nvalue = [836, 59]"] ;
814 -> 815 ;
816 [label="X[144] <= 0.5\ngini = 0.121\nsamples = 894\nvalue = [836, 58]"] ;
815 -> 816 ;
817 [label="X[130] <= 0.5\ngini = 0.12\nsamples = 892\nvalue = [835, 57]"] ;
816 -> 817 ;
818 [label="X[147] <= 0.5\ngini = 0.118\nsamples = 890\nvalue = [834, 56]"] ;
817 -> 818 ;
819 [label="X[139] <= 0.5\ngini = 0.13\nsamples = 731\nvalue = [680, 51]"] ;
818 -> 819 ;
820 [label="X[129] <= 0.5\ngini = 0.14\nsamples = 621\nvalue = [574, 47]"] ;
819 -> 820 ;
821 [label="X[142] <= 0.5\ngini = 0.148\nsamples = 522\nvalue = [480, 42]"] ;
820 -> 821 ;
822 [label="X[133] <= 0.5\ngini = 0.151\nsamples = 512\nvalue = [470, 42]"] ;
821 -> 822 ;
823 [label="X[132] <= 0.5\ngini = 0.158\nsamples = 417\nvalue = [381, 36]"] ;
822 -> 823 ;
824 [label="X[127] <= 0.5\ngini = 0.162\nsamples = 393\nvalue = [358, 35]"] ;
823 -> 824 ;
825 [label="X[134] <= 0.5\ngini = 0.172\nsamples = 284\nvalue = [257, 27]"] ;
824 -> 825 ;
826 [label="X[137] <= 0.5\ngini = 0.178\nsamples = 264\nvalue = [238, 26]"] ;
825 -> 826 ;
827 [label="X[135] <= 0.5\ngini = 0.195\nsamples = 128\nvalue = [114, 14]"] ;
826 -> 827 ;
828 [label="X[143] <= 0.5\ngini = 0.26\nsamples = 26\nvalue = [22, 4]"] ;
827 -> 828 ;
829 [label="X[136] <= 0.5\ngini = 0.355\nsamples = 13\nvalue = [10, 3]"] ;
828 -> 829 ;
830 [label="X[138] <= 0.5\ngini = 0.5\nsamples = 4\nvalue = [2, 2]"] ;
829 -> 830 ;
831 [label="X[140] <= 0.5\ngini = 0.444\nsamples = 3\nvalue = [1, 2]"] ;
830 -> 831 ;
832 [label="gini = 0.0\nsamples = 2\nvalue = [0, 2]"] ;
831 -> 832 ;
833 [label="gini = 0.0\nsamples = 1\nvalue = [1, 0]"] ;
831 -> 833 ;
834 [label="gini = 0.0\nsamples = 1\nvalue = [1, 0]"] ;
830 -> 834 ;
835 [label="gini = 0.198\nsamples = 9\nvalue = [8, 1]"] ;
829 -> 835 ;
836 [label="gini = 0.142\nsamples = 13\nvalue = [12, 1]"] ;
828 -> 836 ;
837 [label="gini = 0.177\nsamples = 102\nvalue = [92, 10]"] ;
827 -> 837 ;
838 [label="gini = 0.161\nsamples = 136\nvalue = [124, 12]"] ;
826 -> 838 ;
839 [label="gini = 0.095\nsamples = 20\nvalue = [19, 1]"] ;
825 -> 839 ;
840 [label="gini = 0.136\nsamples = 109\nvalue = [101, 8]"] ;
824 -> 840 ;
841 [label="gini = 0.08\nsamples = 24\nvalue = [23, 1]"] ;
823 -> 841 ;
842 [label="gini = 0.118\nsamples = 95\nvalue = [89, 6]"] ;
822 -> 842 ;
843 [label="gini = 0.0\nsamples = 10\nvalue = [10, 0]"] ;
821 -> 843 ;
844 [label="gini = 0.096\nsamples = 99\nvalue = [94, 5]"] ;
820 -> 844 ;
845 [label="gini = 0.07\nsamples = 110\nvalue = [106, 4]"] ;
819 -> 845 ;
846 [label="X[132] <= 0.5\ngini = 0.061\nsamples = 159\nvalue = [154, 5]"] ;
818 -> 846 ;
847 [label="X[137] <= 0.5\ngini = 0.051\nsamples = 154\nvalue = [150, 4]"] ;
846 -> 847 ;
848 [label="X[133] <= 0.5\ngini = 0.031\nsamples = 127\nvalue = [125, 2]"] ;
847 -> 848 ;
849 [label="X[129] <= 0.5\ngini = 0.019\nsamples = 105\nvalue = [104, 1]"] ;
848 -> 849 ;
850 [label="X[127] <= 0.5\ngini = 0.026\nsamples = 75\nvalue = [74, 1]"] ;
849 -> 850 ;
851 [label="X[139] <= 0.5\ngini = 0.038\nsamples = 52\nvalue = [51, 1]"] ;
850 -> 851 ;
852 [label="X[135] <= 0.5\ngini = 0.064\nsamples = 30\nvalue = [29, 1]"] ;
851 -> 852 ;
853 [label="X[134] <= 0.5\ngini = 0.105\nsamples = 18\nvalue = [17, 1]"] ;
852 -> 853 ;
854 [label="X[143] <= 0.5\ngini = 0.165\nsamples = 11\nvalue = [10, 1]"] ;
853 -> 854 ;
855 [label="X[136] <= 0.5\ngini = 0.245\nsamples = 7\nvalue = [6, 1]"] ;
854 -> 855 ;
856 [label="X[142] <= 0.5\ngini = 0.444\nsamples = 3\nvalue = [2, 1]"] ;
855 -> 856 ;
857 [label="gini = 0.0\nsamples = 1\nvalue = [0, 1]"] ;
856 -> 857 ;
858 [label="gini = 0.0\nsamples = 2\nvalue = [2, 0]"] ;
856 -> 858 ;
859 [label="gini = 0.0\nsamples = 4\nvalue = [4, 0]"] ;
855 -> 859 ;
860 [label="gini = 0.0\nsamples = 4\nvalue = [4, 0]"] ;
854 -> 860 ;
861 [label="gini = 0.0\nsamples = 7\nvalue = [7, 0]"] ;
853 -> 861 ;
862 [label="gini = 0.0\nsamples = 12\nvalue = [12, 0]"] ;
852 -> 862 ;
863 [label="gini = 0.0\nsamples = 22\nvalue = [22, 0]"] ;
851 -> 863 ;
864 [label="gini = 0.0\nsamples = 23\nvalue = [23, 0]"] ;
850 -> 864 ;
865 [label="gini = 0.0\nsamples = 30\nvalue = [30, 0]"] ;
849 -> 865 ;
866 [label="gini = 0.087\nsamples = 22\nvalue = [21, 1]"] ;
848 -> 866 ;
867 [label="gini = 0.137\nsamples = 27\nvalue = [25, 2]"] ;
847 -> 867 ;
868 [label="gini = 0.32\nsamples = 5\nvalue = [4, 1]"] ;
846 -> 868 ;
869 [label="gini = 0.5\nsamples = 2\nvalue = [1, 1]"] ;
817 -> 869 ;
870 [label="gini = 0.5\nsamples = 2\nvalue = [1, 1]"] ;
816 -> 870 ;
871 [label="gini = 0.0\nsamples = 1\nvalue = [0, 1]"] ;
815 -> 871 ;
872 [label="X[142] <= 0.5\ngini = 0.48\nsamples = 5\nvalue = [2, 3]"] ;
814 -> 872 ;
873 [label="X[144] <= 0.5\ngini = 0.5\nsamples = 4\nvalue = [2, 2]"] ;
872 -> 873 ;
874 [label="gini = 0.5\nsamples = 2\nvalue = [1, 1]"] ;
873 -> 874 ;
875 [label="gini = 0.5\nsamples = 2\nvalue = [1, 1]"] ;
873 -> 875 ;
876 [label="gini = 0.0\nsamples = 1\nvalue = [0, 1]"] ;
872 -> 876 ;
877 [label="X[147] <= 0.5\ngini = 0.375\nsamples = 44\nvalue = [33, 11]"] ;
813 -> 877 ;
878 [label="gini = 0.363\nsamples = 42\nvalue = [32, 10]"] ;
877 -> 878 ;
879 [label="gini = 0.5\nsamples = 2\nvalue = [1, 1]"] ;
877 -> 879 ;
880 [label="gini = 0.0\nsamples = 2\nvalue = [0, 2]"] ;
812 -> 880 ;
881 [label="X[147] <= 0.5\ngini = 0.401\nsamples = 108\nvalue = [78, 30]"] ;
811 -> 881 ;
882 [label="gini = 0.435\nsamples = 94\nvalue = [64, 30]"] ;
881 -> 882 ;
883 [label="gini = 0.0\nsamples = 14\nvalue = [14, 0]"] ;
881 -> 883 ;
884 [label="X[147] <= 0.5\ngini = 0.186\nsamples = 1990\nvalue = [1784, 206]"] ;
0 -> 884 [labeldistance=2.5, labelangle=-45, headlabel="False"] ;
885 [label="X[139] <= 0.5\ngini = 0.21\nsamples = 1636\nvalue = [1441, 195]"] ;
884 -> 885 ;
886 [label="X[130] <= 0.5\ngini = 0.233\nsamples = 1396\nvalue = [1208, 188]"] ;
885 -> 886 ;
887 [label="X[127] <= 0.5\ngini = 0.23\nsamples = 1392\nvalue = [1207, 185]"] ;
886 -> 887 ;
888 [label="X[133] <= 0.5\ngini = 0.248\nsamples = 1190\nvalue = [1017, 173]"] ;
887 -> 888 ;
889 [label="X[137] <= 0.5\ngini = 0.269\nsamples = 980\nvalue = [823, 157]"] ;
888 -> 889 ;
890 [label="X[0] <= 0.5\ngini = 0.304\nsamples = 689\nvalue = [560, 129]"] ;
889 -> 890 ;
891 [label="X[135] <= 0.5\ngini = 0.3\nsamples = 685\nvalue = [559, 126]"] ;
890 -> 891 ;
892 [label="X[145] <= 0.5\ngini = 0.319\nsamples = 593\nvalue = [475, 118]"] ;
891 -> 892 ;
893 [label="X[142] <= 0.5\ngini = 0.316\nsamples = 590\nvalue = [474, 116]"] ;
892 -> 893 ;
894 [label="X[146] <= 0.5\ngini = 0.313\nsamples = 587\nvalue = [473, 114]"] ;
893 -> 894 ;
895 [label="X[129] <= 0.5\ngini = 0.324\nsamples = 537\nvalue = [428, 109]"] ;
894 -> 895 ;
896 [label="X[128] <= 0.5\ngini = 0.345\nsamples = 401\nvalue = [312, 89]"] ;
895 -> 896 ;
897 [label="X[134] <= 0.5\ngini = 0.42\nsamples = 130\nvalue = [91, 39]"] ;
896 -> 897 ;
898 [label="X[132] <= 0.5\ngini = 0.471\nsamples = 79\nvalue = [49, 30]"] ;
897 -> 898 ;
899 [label="X[143] <= 0.5\ngini = 0.499\nsamples = 50\nvalue = [24, 26]"] ;
898 -> 899 ;
900 [label="X[136] <= 0.5\ngini = 0.438\nsamples = 37\nvalue = [12, 25]"] ;
899 -> 900 ;
901 [label="X[144] <= 0.5\ngini = 0.245\nsamples = 28\nvalue = [4, 24]"] ;
900 -> 901 ;
902 [label="X[140] <= 0.5\ngini = 0.147\nsamples = 25\nvalue = [2, 23]"] ;
901 -> 902 ;
903 [label="X[141] <= 0.5\ngini = 0.08\nsamples = 24\nvalue = [1, 23]"] ;
902 -> 903 ;
904 [label="gini = 0.0\nsamples = 22\nvalue = [0, 22]"] ;
903 -> 904 ;
905 [label="gini = 0.5\nsamples = 2\nvalue = [1, 1]"] ;
903 -> 905 ;
906 [label="gini = 0.0\nsamples = 1\nvalue = [1, 0]"] ;
902 -> 906 ;
907 [label="gini = 0.444\nsamples = 3\nvalue = [2, 1]"] ;
901 -> 907 ;
908 [label="gini = 0.198\nsamples = 9\nvalue = [8, 1]"] ;
900 -> 908 ;
909 [label="gini = 0.142\nsamples = 13\nvalue = [12, 1]"] ;
899 -> 909 ;
910 [label="gini = 0.238\nsamples = 29\nvalue = [25, 4]"] ;
898 -> 910 ;
911 [label="gini = 0.291\nsamples = 51\nvalue = [42, 9]"] ;
897 -> 911 ;
912 [label="gini = 0.301\nsamples = 271\nvalue = [221, 50]"] ;
896 -> 912 ;
913 [label="gini = 0.251\nsamples = 136\nvalue = [116, 20]"] ;
895 -> 913 ;
914 [label="gini = 0.18\nsamples = 50\nvalue = [45, 5]"] ;
894 -> 914 ;
915 [label="gini = 0.444\nsamples = 3\nvalue = [1, 2]"] ;
893 -> 915 ;
916 [label="gini = 0.444\nsamples = 3\nvalue = [1, 2]"] ;
892 -> 916 ;
917 [label="gini = 0.159\nsamples = 92\nvalue = [84, 8]"] ;
891 -> 917 ;
918 [label="X[146] <= 0.5\ngini = 0.375\nsamples = 4\nvalue = [1, 3]"] ;
890 -> 918 ;
919 [label="gini = 0.0\nsamples = 3\nvalue = [0, 3]"] ;
918 -> 919 ;
920 [label="gini = 0.0\nsamples = 1\nvalue = [1, 0]"] ;
918 -> 920 ;
921 [label="gini = 0.174\nsamples = 291\nvalue = [263, 28]"] ;
889 -> 921 ;
922 [label="X[0] <= 0.5\ngini = 0.141\nsamples = 210\nvalue = [194, 16]"] ;
888 -> 922 ;
923 [label="gini = 0.141\nsamples = 209\nvalue = [193, 16]"] ;
922 -> 923 ;
924 [label="gini = 0.0\nsamples = 1\nvalue = [1, 0]"] ;
922 -> 924 ;
925 [label="X[0] <= 0.5\ngini = 0.112\nsamples = 202\nvalue = [190, 12]"] ;
887 -> 925 ;
926 [label="gini = 0.112\nsamples = 201\nvalue = [189, 12]"] ;
925 -> 926 ;
927 [label="gini = 0.0\nsamples = 1\nvalue = [1, 0]"] ;
925 -> 927 ;
928 [label="gini = 0.375\nsamples = 4\nvalue = [1, 3]"] ;
886 -> 928 ;
929 [label="gini = 0.057\nsamples = 240\nvalue = [233, 7]"] ;
885 -> 929 ;
930 [label="X[135] <= 0.5\ngini = 0.06\nsamples = 354\nvalue = [343, 11]"] ;
884 -> 930 ;
931 [label="X[132] <= 0.5\ngini = 0.051\nsamples = 342\nvalue = [333, 9]"] ;
930 -> 931 ;
932 [label="X[146] <= 0.5\ngini = 0.047\nsamples = 334\nvalue = [326, 8]"] ;
931 -> 932 ;
933 [label="X[137] <= 0.5\ngini = 0.042\nsamples = 325\nvalue = [318, 7]"] ;
932 -> 933 ;
934 [label="X[127] <= 0.5\ngini = 0.049\nsamples = 276\nvalue = [269, 7]"] ;
933 -> 934 ;
935 [label="X[133] <= 0.5\ngini = 0.057\nsamples = 240\nvalue = [233, 7]"] ;
934 -> 935 ;
936 [label="X[139] <= 0.5\ngini = 0.064\nsamples = 181\nvalue = [175, 6]"] ;
935 -> 936 ;
937 [label="X[143] <= 0.5\ngini = 0.079\nsamples = 122\nvalue = [117, 5]"] ;
936 -> 937 ;
938 [label="X[129] <= 0.5\ngini = 0.082\nsamples = 117\nvalue = [112, 5]"] ;
937 -> 938 ;
939 [label="X[128] <= 0.5\ngini = 0.093\nsamples = 82\nvalue = [78, 4]"] ;
938 -> 939 ;
940 [label="X[134] <= 0.5\ngini = 0.159\nsamples = 23\nvalue = [21, 2]"] ;
939 -> 940 ;
941 [label="X[136] <= 0.5\ngini = 0.444\nsamples = 3\nvalue = [2, 1]"] ;
940 -> 941 ;
942 [label="X[145] <= 0.5\ngini = 0.5\nsamples = 2\nvalue = [1, 1]"] ;
941 -> 942 ;
943 [label="gini = 0.0\nsamples = 1\nvalue = [0, 1]"] ;
942 -> 943 ;
944 [label="gini = 0.0\nsamples = 1\nvalue = [1, 0]"] ;
942 -> 944 ;
945 [label="gini = 0.0\nsamples = 1\nvalue = [1, 0]"] ;
941 -> 945 ;
946 [label="gini = 0.095\nsamples = 20\nvalue = [19, 1]"] ;
940 -> 946 ;
947 [label="gini = 0.065\nsamples = 59\nvalue = [57, 2]"] ;
939 -> 947 ;
948 [label="gini = 0.056\nsamples = 35\nvalue = [34, 1]"] ;
938 -> 948 ;
949 [label="gini = 0.0\nsamples = 5\nvalue = [5, 0]"] ;
937 -> 949 ;
950 [label="gini = 0.033\nsamples = 59\nvalue = [58, 1]"] ;
936 -> 950 ;
951 [label="gini = 0.033\nsamples = 59\nvalue = [58, 1]"] ;
935 -> 951 ;
952 [label="gini = 0.0\nsamples = 36\nvalue = [36, 0]"] ;
934 -> 952 ;
953 [label="gini = 0.0\nsamples = 49\nvalue = [49, 0]"] ;
933 -> 953 ;
954 [label="gini = 0.198\nsamples = 9\nvalue = [8, 1]"] ;
932 -> 954 ;
955 [label="gini = 0.219\nsamples = 8\nvalue = [7, 1]"] ;
931 -> 955 ;
956 [label="gini = 0.278\nsamples = 12\nvalue = [10, 2]"] ;
930 -> 956 ;
}